-0.2758745558177824, -0.7901748352516478, 0.34516096636780524, -0.7399824176460412, 0.7850116154936144, -0.16557189456985766, -0.482915109142354, -0.8152667666444926, 0.644255707445917, 0.32028192662781074, -0.7925780324788163, -0.24207803158364927, -0.3592812538920498, 0.35413196498501154, -0.5840862454148764, -0.08575428603546355, 0.20207278937805231, -0.38643498365137385, 0.8371513796338603, -0.8019873605667027, 0.6053862065105877, 0.6269974772845679, 0.6742327588443962, -0.3060465576140403, -0.9393266541433778, 0.24466001063708576, -0.382407371608376, 0.8250028845197328, -0.016369179973124037, 0.17642738723506968, 0.3217366893000657, -0.19652331013850155, -0.14779677134358704, -0.9733258570735341, 0.3103202730752304, -0.3771070832381495, -0.7398546168654244, 0.8508862164386436, -0.8305594591446623, 0.43176988359947394, -0.8804270338578294, 0.29133343243715265, 0.2435273425185742, -0.038370185760152324, 1.496322136812038, 1.2711912903114255, 1.1029641932677188, 1.3473454254851795, 0.5792033544047128, 0.6884253213204309, 0.4469207489288559, -0.38026060212633334, 0.2442037961295557, 0.7177635799037181, -0.4208141097490008, -0.17945958761674352, -0.8168227691929828, 0.02876312483202792, 0.7176927442537191, 0.5874148140787595, 0.8017602256186549, 0.9180285989197451, 0.9180425300816023, -0.4174177250619069, 0.9939303834011619, 0.9984783759502946, 1.0729390305334583, 1.6828472017096303, 1.8857847102931922, 1.5321249936867487, 2.59214777059775, 2.4900156088752805, 2.745699528531284, -0.19650687404736963, 0.8007379674069813, -0.09794821141536719, -0.24668322929703373, 0.2521612814088948, 1.4145956467649943, 1.938899266089668, 0.801415422000939, 0.02277279398473203, 0.6012200083091814, -0.7767629330822328, 0.9860376066520329, 0.06289920659686654, 0.3269146645275074, -0.6409274177008367, -0.35487114939109365, -0.18921669560728097, -0.40169541248508056, 1.3800359962194764, 2.0196202323336547, 5.4409737719265046, 4.973423091173283, 1.9526114923311335, 5.263536017035033, 5.454484031689652, 8.742384818499314, 3.114519567179556, -1.7679766939178891, 1.9829868935441088, 2.467833380935041, 1.621578945939335, -3.1396851216959796, 1.046920896540881, 1.1747134527530294, -0.5433872493700097, 2.326884883537862, 0.3071909485875764, 0.7671541657985448, 0.8500536889472745, 0.9454178588849445, -0.6172730807764091, -0.8487716986924982, -0.6411865019071917, -0.9229851649323292, -0.05367807991641373, 1.4872210394090732, 0.3349281437270177, 1.3922765097559966, 1.5983546086923224, 0.9155286946478084, 1.2879604070915975, 1.9089880295033228, -1.5182415439888197, -3.385365043986327, 2.0623644677022215, 1.8638244644707767, -1.6850967173749383, 0.9047608807269171, 3.615801363091997, 0.5866163514634833, 2.9144181288193827, 0.9638871435893306, -0.5989898598111079, 1.5947499589236234, -1.9574954342326722, -0.6733706836942612, 0.27003786591861095, 0.8010520068817768, -0.6280831019815378, 0.7848641229104525, -0.49323013135819477, 0.25810255444504066, -0.291396288752792, -1.802882057022428, -1.5551021440923303, 3.3890562856003212, 3.0302620819066983, -0.037331372817760465, 3.6560106851788206, -4.647841475635624, -0.8726423349715611, -1.2860537077973704, 1.7289034614893444, 5.26272692970727, 3.2365201118023483, 2.661987226838253, 3.084523659614771, 0.8374990041343423, 1.3409635014331414, -0.6710681282350939, 0.7774977183367661, -2.4853602666823726, -4.721834701376588, -2.9060563834660496, 0.5007497688653745, 0.7767065086555974, 0.5887426586478957, -0.25597899017044046, -1.3055081417465508, -1.8667846741949203, 0.4521715735607102, -1.4106643743742917, -2.192346168965638, 0.39399958814899727, -0.40612297242406303, -7.872793780228115, -4.237809207989853, -4.912601024736984, -4.692944529733318, -3.697118164072673, -4.504283852818115, -5.535955072317134, -1.6484015716225568, -3.142920509929229, -1.0895812844252868, 0.2783865888292294, 3.1442253187210767, -1.1590275822445268, -2.165020110100371, -3.087350071882747, -0.5781530953628096, -5.209867827990616, -0.6170848191902432, 0.5039518019326164, 0.5978717811670478, -0.0757937021724872, 0.48055249457415034, -0.5150925436882621, 2.147440762809743, -3.0173070306639826, 0.046676635709748955, -1.8171004763780731, -3.641364437803473, -3.0314537809524436, 0.03806928043854428, 5.288355850816637, -0.26761556055089486, -2.3225482007032805, 4.3748504514791575, -0.7078198110326916, -4.340506743327959, -2.4151367752135373, -3.342505373846911, -2.4340843021641403, -4.6440943565583, -3.4510776540270096, -1.8649024135745567, -0.043573118987951284, -0.21871910161864605, -0.2532584518977408, -1.773783441610386, -0.3096743939178886, -0.16669140507367988, -0.5871124738129402, 1.435088300323827, 1.1221582183001784, 0.8725198578610082, -1.2094452647076441, -1.5559969221148164, 0.19814206619087038, 0.5716761902014459, 0.506873260358075, 0.11115038150673047, -3.5349803787265435, -2.2474687221367398, -0.695568476502817, -5.987964547757375, -5.337815821657187, -9.243023070644128, -3.38420356869974, -4.056521887912119, -5.72427042863257, -5.395254010111797, -0.8018209354379533, -2.9326646714162075, -2.579628252957465, 0.02851188669837116, -2.358230980913563, -1.1864567157166037, 0.34766891797072375, -0.39552187752624896, -0.4144841446154397, 0.5755142070954086, 0.029965664910392188, 1.963730599857506, -3.7659381568763024, -3.530020481594196, 0.6141442300742398, 0.21738986138419295, -2.2446641512245367, -0.06408502401098708, -0.1970490889124178, -1.3375466611928506, -3.197374682662947, -0.45416414094637625, -0.12611889405071183, 2.70126137511874, -6.089092539105815, -0.8585404403362963, -2.229414728790219, -1.168541162306544, -1.9173673409368541, -5.522355511130327, -4.427452107911666, -0.593344085985312, -1.4129225827427052, 0.16868665886305204, 0.2964015753754363, -0.18920703709330353, -0.5924287522999331, -0.9207676179602978, -2.7241181537504295, 1.3733201991473158, -1.6628384639616207, 0.7988668974603222, -2.6775170833989286, -0.4352546773393761, -3.1277139207698164, -0.8409228802944655, 2.734193547734732, 3.1524433779390133, -0.5804123678708384, 5.195913412972285, -4.830738528168837, -0.44478969508565114, 2.5412727116420433, -3.2720313316097505, -0.7570553419952535, -1.2857164000663963, 0.728491967309022, -4.274797490502239, 0.20284604195729902, 1.881471293406496, 0.5506511057341781, 1.7700189493655671, -0.7371372467637642, -0.1724945090947328, 0.9336903207973833, -2.7218608598893543, -1.0924396296021301, 2.397027026154382, 5.427955965497828, -0.8237464317257487, -0.8387408522321272, -0.7797069853324549, -4.831044277576349, -7.329692462250174, -1.3108157190435248, -2.712354145041404, -3.292363851141515, 1.3451063217677557, -0.5977776161499911, -2.932826628296837, 3.1464773044588394, -2.640244233996934, -0.7171322582304851, 1.3711033602025462, -1.0575892566241194, -0.7555769544113123, 0.4417668205210791, 0.907848336429233, 2.078283992526475, 1.0658843167493564, 0.7450416186736827, 0.34936631731428214, -0.31752505575755713, -3.670551282369611, -0.27404841091796023, -0.7679448506939149, -2.9592491889910875, -4.580064090817195, -0.48432722725113864, -4.26091622492018, -0.9797958546342793, -2.325657322761671, -3.7881514700296837, -4.797945093677192, -0.770627054958591, 4.646560534623106, 3.8441721726425384, -1.0647827619047578, -0.7857042511372451, 1.024690169220803, -3.967587936481903, 3.301845862306557, 2.4483337282459727, 2.3092441477539856, -1.5085387999980657, -3.2413732688786587, 2.1768246230257815, 1.0220650912400229, 0.38731211850019087, 0.7481826347288005, 0.5840808543182102, -0.4285070674975236, -0.4602676983256071, -2.4185153922192333, -1.784326254913169, -2.5606881757994833, -3.0730510927596857, -4.33600767796466, -3.3472206063461876, -2.1255878910707904, -2.4260805997961485, 3.4323455702044043, 0.41233954659014743, 0.8652988766104536, -3.386752122385294, 1.894110677080461, -3.908042147430598, 0.6542955174230622, 1.9726211745062185, -4.3666870107979046, 0.36936589154641003, -1.4551033628455017, 1.7252263706208586, -0.5600175693849267, 0.8350012932993747, 0.8549520315390962, -0.4204181608595151, -0.2892751214595513, -0.05899960551345654, 0.15806676042222242, 0.2683741265342358, -3.7545418518006723, -0.8788244707943001, -0.95177775961579, -3.2271423327431488, -1.719489778378122, -1.9275148908326114, 2.977307385420987, -1.8418595474303199, -2.604944487807056, 2.801599412962996, 1.9357639660273103, 0.38353481658452815, 1.2487534154613962, -4.555867031505635, 2.031925744328921, -9.756159246305801, 3.558816102978748, -0.8334132303072425, 0.5173588269377852, 2.1876426295588183, 1.8874056661791683, 2.158930880932012, 1.5153055550282497, 0.7425216569586216, 0.5580093083219416, 0.6657151053800524, -0.9511589269571974, 1.0527242627151991, -2.291151428679544, 1.767344784882247, 0.9679722893653477, -3.4969960458555955, 1.6632528623119502, -0.39727226934354637, -3.5393683076622406, 0.07122007021900918, 0.5804930370676868, 3.754955677145428, 3.8429056983064953, -2.26794725697452, 1.543549875124828, -2.0543910830267684, 3.1405039501741534, 2.4316847461789317, 1.0893095518658793, 3.029458910514751, 3.1271144826389974, -2.001564506897976, 2.7836776530497525, 7.926709856439105, 1.2255459475332438, 0.33270623227987, 0.732179828568066, -0.6840851831876898, -0.35946761750675327, -1.993176558523681, 0.08467778530416266, 1.303870166773909, 4.595616674965793, 0.14660642575197383, -3.511089522743437, -0.792867972538036, -2.362689965808705, -3.4893077871915086, 1.9487484421033612, 0.8437487887570305, 6.30636164250813, -1.6656445583453658, 0.23521744636137468, -9.109417747513179, -0.20307959322435662, 2.0376665254293753, -2.0056560615505066, -0.8948251698022295, 3.0437162052106657, 1.667952965725152, 5.126602639598715, 7.847879824283568, 2.1884186502026393, 0.48449587412709616, -0.5469255475821433, -0.7699686727352542, 0.04577169302818915, -1.9708475202766496, 0.3979321177029897, -1.4162208748433764, -2.0779282986792142, -0.8072117577233479, 3.2284655731519374, -5.109510778981476, 7.74282086257255, 0.4349162218595382, 0.7091756575965483, -2.823667675322032, -2.381537046470269, 3.94354488352186, 1.451377491493065, 3.484358113057897, -2.1111415817027477, -1.600728997364375, -0.5664967739240013, 1.9058995025294891, -1.4183901883234242, -1.3075191372972552, 2.973356704503043, 7.5799165689283186, 0.8480990052150003, -0.19784867170087003, 0.5020846763456853, 0.5002674941754581, -1.183889601725197, 1.1107837103463238, -2.827948439820607, -1.14085519418882, -1.7541688989799307, -0.9809487600386836, 4.532443022408704, -0.11459739950565694, 7.075778540753286, 1.9972293317678156, 1.3107351756896553, 2.462132038852766, 8.970893798174632, 1.1748774344419128, 0.44697278216387415, 1.77746292269752, 2.819720211131237, 1.011038053853986, 0.3556792226453435, -2.143564141674182, 2.789583261330454, 2.952994693321374, 0.6338563337140549, 2.173699100799272, -0.14198678052639377, 0.7632614139028658, 0.48310057421403196, 0.2680668795355097, -0.08454506371174889, 0.22723091727291173, -1.1410157537923145, 1.8822103135386983, -2.93727778096021, -0.40607323438051096, 3.4366710661639277, -3.698578352106863, 2.9125495152114724, 1.3660492559474613, 5.409500995804484, 4.849103728563137, 1.7944233006156336, 3.841883348783468, -0.6679779622125547, 1.1516565203588844, 0.2905657517727792, 0.9596286410072591, -0.6888047465306344, 0.09148651516726085, 0.5681963756809635, -1.573479741906255, 5.206368693544796, 2.0065775221589224, -0.014117283907736627, 0.9831188290764705, 0.7412154284983545, -0.21752411080350983, 1.1256934618507937, 0.38712631103443973, 0.7683166279261723, 1.0189250338873903, -1.379837321900819, 2.6708176409533064, -0.22157654241578195, 7.22687170333815, 4.5368479337682555, 8.526970863825426, 0.39040217283261563, -2.02091348486722, 4.324308580677057, 1.7644454884753777, 5.278408240387975, 0.23849628322517563, 2.9117824946673365, 4.510830431319235, -1.322171636868966, 4.7100142973382395, 7.604223067253426, 4.586639638596938, 3.3335193802011163, -0.33624220695220647, 0.3945784061740736, -0.8524626446728526, -0.6140416121532564, -0.6749357234401624, 0.6389511418025324, 0.10147604624288717, -0.25748934116029076, 1.564440326833801, 1.7720897834120573, 3.736313323332057, 5.78010928198456, 4.919734905744177, 4.142794092012556, 3.4849541947448093, -2.108721727372997, 6.677123874642346, 2.9103159273636248, 0.536292253670758, 0.07274423406798763, 2.4241851003690544, 3.550968299276522, -1.3295246192792503, -4.908892164241293, -0.420354248805956, 2.1098802599405766, 2.5542508938380695, 1.027436140866485, 2.0717878926098434, 0.028168967038762267, 0.8988515436908682, 0.5727563511622045, -0.7912544931124782, 0.9167258932286565, -1.494739776683524, -0.5001414985294486, 1.0102319273446576, 2.831293170547787, 0.6286011202802695, -2.5273878769551232, -0.1335407935677111, 1.5018407447058988, -1.1439492715973807, -1.1296008310075816, 3.146800330841577, -2.220139752846118, -2.2168022136027625, 2.277216242321875, 0.993589561275102, 2.1777403745549786, 1.418398484378771, 2.4045702698142235, 0.3217392575864737, -2.810925628084343, 0.46791981847964426, 0.010123239175748002, 0.7404682581139685, 0.06311118177567891, -0.8521778727849196, -0.6625852135885899, 0.22586479156619266, -0.6227109522215909, -0.23509768439749956, -1.4423494934984726, 2.121425735585737, 1.2149101345906683, 2.1031360178162566, 0.9370454062301821, -3.630154320987184, -2.0904771515346527, -0.4995824182730584, 1.922306364334912, 1.4431286325615598, -0.3959857021652365, 1.4369967185735952, -1.1657487484711981, -4.35382557002505, -0.7583314540806092, 4.416393192189001, 1.3501638417780977, 3.2236945442115603, 1.4711345392400814, -1.2600119309971551, 0.33122115701235333, 0.06909068946870468, 0.9671449968796397, -0.6856924786827707, -0.14076893197773455, 0.6933631979173274, 0.17295220705777603, 0.8181140936257439, 0.3166717409159145, -2.1155359829082565, -3.403827064652802, -3.7063733733067155, -3.2709942824181266, -2.894107649864711, -3.661712757748107, -3.7543572904823916, 0.8390709591040622, -3.6459721727896337, -4.606877679986652, -0.5560595917679418, -0.27682838425450884, -0.8391992514790358, 1.7179311052386446, 0.6423250436793707, -0.14632721942346769, 1.5507832183567851, 0.8077784817455195, -0.268996965481305, 1.202774435070211, -0.4941710786536435, -0.8776234531840912, 0.20801144424170626, -0.9542806360556748, 0.10777282151633627, -0.021465900282752647, 0.31220532872432555, 0.30249701256484757, -0.671845687517462, -0.4317007614299973, 0.35160426565973224, -1.4246681716738285, -1.1311771987447605, -1.3873961095226985, -1.3208830962424813, 1.1394295300682142, -1.0910908797926029, -0.03601782773453492, -4.980574767393365, -5.52489360839273, -2.3100708898511737, -1.2962804397883116, -1.7733522213517068, -0.9880194148739108, -0.44834859076886907, -0.7335814737993679, -1.2143216192394692, -0.4481565391836926, -0.5638870903267004, 0.5093176822029966, -0.6089860072735169, -0.21296967714428017, 0.7974421650367323, 0.4441190400019486, 0.8746959467864936, 0.7361925137477656, -0.5418399874040439, -0.11807785328205593, 0.4650072237651949, -1.0319367345198822, 0.7582573006245261, 0.31629628053580455, -0.5736218601439055, 0.25906458369464846, -1.305294945217481, -1.0543899298879904, -1.3127733714104024, 0.07852160526597345, 0.42938877938781583, 0.6709876006925849, -0.010471433309907394, -0.11387177037799352, -0.604993799021751, -0.43993573914573547, 0.06893501597984678, 0.19983920611354944, -0.5743130971518765, 0.8026333679027751, -0.26592204202551084, -0.8792725766437937, -0.3237162385763632, -0.523775873901374, 0.9457873361705929, 0.39006592747131874, 0.786222692312103, -0.6341316269844148, -0.46329289177870847, -0.7380984467365295, 0.4845342658681005, -0.18641488426864872, 0.610640563789019, -0.18972691288962354, -0.904656940213562, 0.3339536603231261, -0.688780630363641, 0.9555063974681004, -0.6690998218023028, -0.05668902629799943, -0.7735774166869366, -0.42881030365155554, 0.25091562091491604, 0.0506182700223192, 0.5919018961472737, -0.1763592923882944, -0.45615992440525566, 0.7444680738377265
-0.9353147096932237, -0.12234050272513475, -0.8809245361514704, -0.49417432847831533, -0.7538984035267493, 0.04544429557427421, 0.3015013890130813, 0.5854790993917605, -0.8293438667958943, 0.7864776308765118, 0.84474212397047, 0.7724841414113741, 0.03584768120864723, 0.5558362262749652, 0.44960864480218515, -0.6246488159223281, 0.9282960845015367, 0.32633965507059703, 0.4996961305001406, -0.2499370264497487, -0.6331348433042907, 0.3902691896112709, -0.6518808776258274, 0.25370836667497954, -0.8894116117328486, -0.14786203702120337, 0.5940309283339349, 0.11402602577049925, 0.8686657647752802, 0.1472472862809595, 0.5754415244887279, 0.37898297095152444, -0.6982473028632157, 0.8513012679186223, 0.5343212694235085, -0.14785822647547364, -0.9693311718075207, -0.6745648279981162, 0.8394894666543065, 0.6847902660478979, -0.8371301697985416, 0.771290018606591, 0.6335603479006718, 0.2974379135518241, 0.11625020236659027, -0.24440022057646518, 0.5534199553170075, 0.6231459003081408, -1.2601286353674168, -0.14959143746717182, -0.49852783193143074, -0.27824205059511503, -0.5012186835879491, -0.7473544419317069, 0.546980838122344, -0.9017207501442748, -0.9907775794193998, -0.8944195193154492, -0.9271565636913015, -0.5480445090348192, -0.38484195740970617, 0.48548241483158266, 0.8249664963373364, -0.7201383178023308, -0.12881073805746102, -0.5267814222337951, 0.8000184281134795, 1.4628166405561969, 1.780829769702147, 2.621890989632938, 2.1380097845472505, 2.6501358920436777, 2.9072664225136844, 4.209318897031751, 2.4928287816047834, -2.664317613026243, -1.2717030377417098, -1.4530690878035262, -0.1014961951095783, -0.7125675247437604, 0.24680743194607538, 0.5211284074358854, 0.15191093700210315, 0.6434771792728544, -0.6333864661373572, 0.39229851852362807, -0.7703873418870144, -0.02219241600493822, -0.8292878385066477, -0.05778643949759288, -0.24245677705111968, 0.015950438284704778, 0.03250354004802704, 1.9236913336301233, 1.2686118406786437, -3.8003358224817623, -1.0015260293764237, -1.6240074050204232, 1.0463476697773308, 3.473604100262691, 0.08568296204835178, -0.3419102460273373, -0.8184669443495985, -2.8050421321936763, -1.6069930052971566, -3.656436712270401, -3.5240524803729487, 0.2980202428467065, 0.16562007634004974, 0.8717038868339593, 0.49181265338192337, 0.29607819860767187, 0.1787026164830734, -0.6976917423773961, -0.192738593805536, 0.5943784575102853, 0.7543009727387592, -0.7935215474503181, -0.5186314916551453, -0.40687229318041374, -0.711531717704454, 1.0392825572451956, 2.567227357970459, 1.3265666066798067, 1.5676119266381956, -3.3231977452797055, 2.8699060572871877, 0.5525004009179556, -4.659684338312346, -0.07925199002057161, 3.655669765101414, 4.1912470290477355, -0.01452907552514119, -0.9712205991851757, -4.348599350856339, 2.167351674109445, -1.4167672116933245, 0.8741560877054674, 0.8492964858937481, 0.09554414585565588, 0.6780935319950298, -0.4240314573890611, 0.17701092552105524, 0.03858865711097808, 0.18302136049048326, -0.46240532735776174, -2.5905339444296076, 2.255376787807498, -1.740499764372669, 0.6474721049251139, 0.5370285152431491, 6.193252621552892, 0.565736540753027, 4.054593392720738, -4.086700883719312, -0.29367838113333466, 0.2676729078956204, -0.4434433541086889, 1.24774747221599, -1.5359522741708487, -4.110710228420877, 1.3306501731247866, 0.46769178151860097, 0.35764108223309343, -1.1849334011197445, -4.1348838928009854, -0.1348520584577956, -0.46421036976436053, 0.3668840795430966, -0.4735501547645291, 0.3586782222122543, -1.2558835646038946, -1.3443874279283632, -2.333094776835448, -2.7972057346621524, -0.8006479968241025, 2.5356274358479127, -1.3994022385802711, -1.3857886147273537, 0.4444323521067467, 3.16321963458577, -0.476682031916377, -4.414182238015692, 3.6051095028489644, -1.155615935724447, -0.7749353119783939, 2.148686659369146, -1.9839080546527492, 1.068469425584407, 1.1343276406527594, -0.14064738199112384, -2.3966908098588213, -1.3612825872263745, -0.0694252299258017, 0.48388028613677586, 1.4295470745105385, 0.9043689771435243, -0.36444196907344556, 0.510620102789464, 0.36594882487660335, 0.03506331943549132, -2.297735291592091, 2.0531098650216446, -0.04974887233677625, 0.5332765847077525, 1.3337981356405584, -1.555075698267817, 1.930711153656545, 1.8325805270996585, -3.0551171198288056, 3.6580285248027513, -0.6127447022846493, -0.6639715378367558, 0.9195243300648629, 2.3350873797464824, -3.113053896149972, -2.2313930216932287, 1.3329050372669677, 1.2800115038645954, 0.9836318956462163, -1.5577805314466504, -1.0546729579628145, -2.172082603595088, 0.8792102332262434, -0.25902359425546895, 0.5793812829899918, -0.08936205284998151, 0.23011127812164184, -1.284979552639091, -5.586356489722818, 0.2663846045055496, -1.738503045833704, 0.6584435370896753, -1.8598835864143903, 0.8072171491060942, -1.6140673661449703, 1.0507073144565329, 3.6843837883555723, -3.3233453530706636, 0.03502098268236234, -1.6299311689036742, -0.40012278059388623, 0.43234976667114744, -0.21561842268411363, 0.7078534608416083, 0.15507230771210054, 0.633938242918969, -2.428947291650077, 0.9050868429884896, -3.0010932263579697, -4.461543452829577, -0.33524422365012235, 0.37682950255857134, -0.0873093867210585, -0.7225490045236614, -1.2720595286229655, -2.576109861719429, -5.234253485952172, 4.089016343527966, -1.5158543070918753, -0.662987255292648, 1.1079809593922774, -1.2107506948820925, 1.513160007642582, -2.416202785807496, 0.994312411126139, 6.294624847151608, 0.13013854536371763, 1.0447944655417363, 1.4124350292138543, 0.8662329493615704, 1.0833457012709535, -2.3924324820830476, -2.43521272223749, -0.48212584063137903, -2.53585414056679, -3.4705932855583077, -3.3919464061156743, -2.0143737845620566, -1.5977113729841885, 0.37630352869662526, -0.6538043264424683, 0.4818550841612382, -1.9294441125772295, -1.5230826965061375, -0.7804806148984652, 2.414618723180098, -2.808502992373758, -1.9537617384246815, -1.0556687639885136, 0.6220864898143105, -1.4494241533004184, 2.07761114379681, -2.44367511655456, -4.835268429449913, -2.202069019448699, -1.2816353654946167, -3.4734417934460713, 4.590512479580012, 0.8279470104156522, 1.7044643442264333, -2.5630490242262587, -1.1151465140180314, -0.6199415813655119, -6.8625740538073705, -4.9435533716358115, -2.5300926313361827, -0.24481428768925942, -0.7878827710786707, 0.6930920027631172, 0.3211372863339752, -0.42636091840134244, -1.227369500954732, 0.7068908447308841, 3.5376250086755543, -1.0102569886583974, -1.7880530071397382, 1.5901454377854696, 1.4202107071537928, -5.5461760117860734, -1.134129361848577, -2.5580611854202946, -4.466453568333832, -7.517117758312694, -4.7375867154592415, -1.6728098098583937, -5.23645674852229, -5.380439293159739, 7.251515805258188, -1.2605641212780125, 2.8007867596749603, 2.7508055056958547, 1.3255121045598728, -3.071848258048251, 0.8675616567255081, -1.350607323506412, -0.07998388446672423, -0.8582384960387108, -0.8329211160039969, 0.7718716629790218, -0.6407020386611578, 1.2838088970733528, -1.8072071655330375, 0.252414485911004, 4.309427114956768, -2.002021294942194, 2.7782680513732685, -3.5646219337596543, -3.6161307701727736, -2.3520630509803406, -6.470287188602646, -6.784378022972155, -0.9801327221220562, -6.101405536943123, -1.460747225016212, -5.912202989022119, 2.316689379424216, -1.1000529872425626, -0.7090205720138708, 0.1885739181583578, 3.00801685741827, 2.7516221815762014, 2.132810709471905, 0.4589602949000443, -0.09965956998574234, -0.4712601429785026, 0.07753800294937849, 0.7896853143532213, -0.5511379852303034, 0.9547733655317752, 1.083422192170917, 0.13323302750866348, -3.2050945576490935, 0.3011504287050855, 4.4270358404876955, 3.4000035839969454, -2.91721825861692, -2.9144070918041978, 3.414651812530803, -1.415848652240487, -1.128140128747175, -0.7350768075547739, -5.565831692133642, -4.6388918410386495, 1.3427547839693477, -4.4250927124443, 0.5257542507856419, 3.4433179385208534, 4.090860767268023, -0.8405791223285626, 2.058202854959722, 0.2701674741353025, 0.7787159770293837, 0.7413598155664427, 0.5748745865506768, 0.5547321110205098, 1.876300775165723, 2.201836068206044, 3.5287298629610304, 3.6954669248555514, 3.7630688285875, 2.0721867804727294, -1.7181965726537003, -3.1656135127072393, -0.5623628464024876, -6.012792928665424, -3.6644945018302515, -0.06618067305325152, -4.721144325428634, 0.020504085151478096, -5.62729490156505, -0.47538906478588666, -0.3972643149733155, -0.7284022789068102, 0.13326171613059176, 0.6999241734851634, 3.4214441382878404, 0.7724019633833448, 0.7593649953510099, 2.7087251642128045, 0.03419521979107285, -0.7280186144322719, -0.7172575960447205, 0.797265123133366, 1.3334937507369247, 0.1576750246883114, 7.733523566979142, 4.454320548595607, 4.8968212673469695, 5.729391871946779, 7.510050609606396, 2.815172064399914, 0.6608202044909888, -8.047626793812082, 6.1917513600867595, -2.876657344259892, -0.3477568323361153, -2.6542565985130953, 4.8365593012376875, -2.7382917828019595, 0.005969316606317327, -1.319337737007198, 3.2349646672155656, -3.029193998990568, -3.723729925683405, 4.325678349462726, 3.577574124921436, 0.015036536853128613, -0.4450237838115614, -0.7242575910415635, 0.504603954693197, 0.7301054964014309, -0.24553781897164856, -2.305784435239134, 3.7773233118399485, -0.8923542308401144, -0.4224900615955383, 3.8356733930762856, 1.9703181953230509, 6.7249232924832425, 2.323465756978846, -1.7958969818455328, 1.82067142396419, -1.3126028207204938, 0.2032760018558482, 0.7361695722431468, 1.1075973823487446, -0.1255652817614666, -0.8796766043840156, -3.5262797620408244, 2.977937914542187, -2.906345030843512, -0.9345824218661158, 0.3566541319819148, 5.544421793156939, 0.5511064571184056, 0.13145143574703544, -0.7485414944713797, -0.5889264118804917, 1.605980994910184, -1.4683787802340889, -5.296724579052907, 0.3789509246213102, -2.2763828832412076, 0.6871900853207134, 2.6853383450660484, 2.6550287866976197, 5.364830006740372, 3.8152495664649253, 4.9698906891264585, 3.1333121521777425, -0.7605842613340505, 5.343209085835524, -2.267268013985535, -1.0378985822358964, -0.26919550377395496, -1.8179015820282862, 4.3444439511177615, -0.8289182658209984, 2.5004259811646006, -0.5047071827088861, 2.1539580715593853, 2.5547602551113116, 0.690333871491322, -0.006163167187393991, 0.6702875754615915, 0.061812544257959914, 0.22242566329526722, 2.1855329900385443, 1.2205503623547147, 3.1549736357305624, -1.9742539374127501, 3.190791294055415, -1.8364439268418875, 1.9431575661946585, 2.9046801616129, 0.8814482419623988, 6.508236597409654, 1.6763412862311071, -2.054623912803456, -3.5188254157414303, -4.846153989429937, 1.0322582130452262, 3.751011482943192, -3.151846294046863, -0.45634399545935755, -1.3038039734215763, 4.675116010370554, 1.0896821533355807, 5.2917877885591915, 2.687827212699617, 0.26248213289943195, 0.5561004792543535, -0.48061682741484046, -0.01930773170357803, -0.6944326836492062, -1.7168919705996117, 1.360427104674727, -5.068898925935636, -5.033869225895359, 1.5176255144897628, 2.470543606320189, 1.001772793657251, 3.662850151623403, 2.19406627333491, 3.8587896621324753, 0.6030741308160491, -0.43735857971284836, 0.3431928752840497, 1.0357435162314865, -2.5014611018777897, -3.5768633613654983, 3.136348947021979, -3.7653469423507295, -0.547243425561568, 2.102965763679647, -0.538286187370359, 0.9897629246748361, 1.1355675824208844, 0.9125239129704581, 0.9520648769622062, -0.1921271471146475, -0.05096486393653424, 0.5364969585526836, 0.03743958130705545, 0.3568087576337754, 1.2995752500570525, -0.0656019934398606, 4.914299707348638, -6.862609112803909, 4.08987843447739, 5.47054694784171, 1.6086809259272004, 6.6439327973464914, 5.072339763606299, -4.684667218586637, 2.1908848087631156, 0.1579479533780935, 0.07720754536931354, -1.9673407392001614, 0.46696255556647964, -0.7668141874505728, -1.5015270386211426, 0.9794391822176193, 4.497490584967253, 1.0182423770587992, 0.8603859681914893, -0.6274403062776017, 0.5962250615080156, 0.6003942041106751, -0.24162975233765632, 2.34869460790384, 3.8665592641124693, -0.41487598515094787, 0.01381438619264227, -0.9299761655889583, -1.6181158288535236, 0.2989172274060515, 2.723112127147691, 3.080816426206494, 2.8214277133117167, -0.5718601588528941, 1.4488371715034873, -1.7401757748198727, 0.8109169199225251, 0.18662457245811484, -0.612659201374667, 1.7484102835839568, 3.946633499679665, 0.8017342315469783, 1.5036869473530534, 2.7803525082024234, 8.278347981765865, 2.3462313290662427, 1.1984168114027345, 0.11937103414251085, -0.5460097937470392, -0.9043675715191207, 0.8522799243854298, 0.0844977859332949, 2.506209753860163, 1.6760909729417137, 0.8355081411820843, -1.402758179913095, 0.4279248265777067, 2.9531742318606606, 1.9096354646338596, 0.6960659530670191, 2.8011232425923196, 2.756477352871482, -3.581786185308462, -4.090942701462896, -2.126806835707188, -1.7510220899783895, -2.2397241076248013, -1.0624774375654125, -0.5925033626052267, 0.1951390421480989, -0.853534726341581, -1.223059487248182, 5.76190579858031, 3.039165039710994, 2.5325792655857904, 0.7693746312603886, 0.01665140315568129, -0.3314897439599125, 0.9467614458601998, 0.4925813069644068, -0.6895168082769919, -4.571250924856706, -6.860136820110602, 0.4603776421973269, 2.309461571176978, -1.512276172452984, 0.31041794852988386, 2.610968557538889, 1.196864343792417, -0.5650362168514017, -1.035741644137711, -1.9031725586981882, -2.2743654528348056, 1.9681710011155518, -6.385826311824905, -1.1913856124689561, 4.349315660023109, 4.972261045450943, 0.7139607164158427, 2.8180546127952653, 4.1179293920594695, 2.3150436245438075, 1.1357820392440445, -0.9859577520494116, -0.42648104636384976, 0.6122859232670153, -0.46021444475649864, -1.0674284877772917, -2.4622050860343268, -8.18429746060319, -6.024458270490353, 0.7777157339089811, 0.0592181690766585, 0.42302235601695637, -0.28449895627920224, 1.0138866733053369, -2.6664841667290764, 1.1402948488515638, 3.00297759085439, -1.2598000031447973, 0.3358841922819697, -1.5761254137276506, -0.468564944942978, 0.19530926798051923, -1.319459176904579, 1.500805178369609, 3.419316812168891, 3.087874121599971, 2.1818643715970785, 1.542932571663925, 1.23798588013841, -0.9283065549350032, -0.5402540064828194, 0.5912082971827228, 0.1617971111573402, 0.8796158227364596, 0.6069874240861258, -0.6407364149872322, 0.7188944966045958, 1.6041139844799874, 0.8744786432497634, -3.239404729955589, -3.154394433725194, -5.15776575515816, -2.370941919716543, -2.476045988502606, -0.8552082863050755, -8.213947583541989, -2.989035853811649, -2.1504171859865004, -1.850248474894117, -3.9442218909369435, -3.512402863311609, -2.3728436826590826, 0.14414554043587946, -0.6792626065565018, -0.09920015037178245, 0.3708151476648913, 0.001446699155931421, 0.03246804431609038, -0.463982353751921, -0.47533248139356443, 0.7676115492708124, 0.18689302557898713, 0.47369790757388397, 0.7179412679466868, 0.06572545173350723, 0.8843024295507896, -0.27719318135843296, 0.10642549473272969, -0.116388723761556, 0.9576995533846502, 0.3464054888220363, 1.1821230558769846, -0.9643201008774178, -2.9460392814146728, 2.9497930013350837, 0.4663360189815052, -1.2375486042931538, 0.41505658955797625, -0.674088602833343, -0.5451382677432426, -0.4746041822891152, -0.7807067224591221, 0.8509456724504497, -0.03391848764986725, -0.36862158589584476, -0.8578128153795299, 0.6060147410732084, -0.24516541628412925, -0.7467378143166432, 0.13046157280001003, -0.4627372049137053, 0.6208141842002912, 0.9952968269940877, 0.4311102816487277, 0.8152843260084813, -1.0889072111285036, -0.24001928836155775, -1.031227203458868, -0.312246710563094, 0.05512936431901993, -0.38855226169573076, -0.14591635326107194, 0.13853597566139528, 0.48304507539805014, 0.3102547872165278, -0.091018892575788, -0.7273918218103651, -0.09947716997735753, -1.0092861691220145, -0.7356210940570135, 0.10238131273414085, 0.930204708993118, 0.5254485033093641, -0.6824016939736566
0.844404022133002, 0.9382536842147668, 0.17486085721348243, -0.7750365520735085, -0.23478219236623654, 0.7333526428924331, -0.1326024204657401, 0.06351285343898061, 0.6845989859368578, 0.8806440593209357, 0.8625347290447243, -0.48621845874032843, -0.7360062371701654, 0.8012061992005389, -0.1578358083086228, -0.7570434971493397, 0.5543960216746784, 0.5697735467186926, 0.21945702471534423, 0.7814445512573738, 0.8289006471909672, 0.05992702207833478, 0.4285047889247988, 0.028879672077705587, -0.34116225325916694, -0.8161378100614263, -0.7012221993915335, 0.3241158194687468, 0.628525251787498, 0.11646796839276652, -0.4088517297689105, 0.939703708685466, -0.9142827288688911, -0.4015048027723118, 0.3038194212758128, -0.23734996080762388, 0.7145341050053107, -0.0594509539824285, 0.2577448612644262, 0.6100380660667476, -0.8334711799415955, -0.3836697549408512, -0.8068788639169403, -0.36036130034137204, -0.6117115833721097, 0.898957943853641, 0.3276770128805228, 0.27195097545450164, -0.8446912916855986, -0.7805062426083702, -0.7500830290919169, 0.6458788309357391, -0.48059342614716444, 0.07406327152837111, 0.06686166409887795, -0.49851431189014805, -0.5829842155899005, 0.8762619719589178, -0.26524913147325324, 0.22368947794198277, 0.8260440794673519, -0.08669076073700467, 0.1307186371369737, 0.7207821989545155, -0.5528798419677934, -1.6564414908991774, -1.1944594007524345, -0.11544983847121218, 0.9752447093395696, -0.5810129029705208, -1.1939091465393818, -0.7134858407908702, 0.1752273344940779, 1.4698205097011858, 1.323680083814315, 1.665974677030672, 1.6579181366990008, -1.713787032120794, -0.629770784951388, -0.1633049575143386, 0.014482615964526895, -0.4879404631876887, -0.8547925321482123, -0.5610914774658182, 0.5083204563705521, 0.4026825439013675, -0.06213534425580147, 0.07826554881331067, -0.011266098559633732, 1.0363439238490282, -0.5719110525360539, 0.4474906162667267, -1.2509866005677739, -2.227199650305773, 0.37231382210051783, 2.9792728863573554, 2.627980718443822, 3.139790518951955, 1.2471695020002838, -0.3169773801172638, -3.8897481805032585, 1.3292446701140992, 0.10555848926953768, -4.967038353455906, -0.19174100464663787, -1.2582704578645356, 0.37944449925601653, 1.129850298139476, 0.2125638196018955, -0.43728452831013537, -0.13736276650841925, -0.9252940512436695, 0.638985584940976, 0.5580779788871009, 0.8962893976363938, 0.8332740878429796, 0.1293914474866431, -1.3436795566277902, -0.5010760210440536, -1.0937466962869444, 2.2282442185380775, 0.7708203914132025, 3.5126440075893366, 8.216032320951264, 6.06555788087697, -1.4429756227611052, -0.9186237315145198, 1.1005586550266206, 5.031273900507687, 1.0774210984215695, 2.0520073179043443, 0.666203542889062, 1.2208279953576306, -2.7950301037672025, -3.774966192355988, -6.921044997037567, -2.4000337048558174, 3.2162704344997217, 0.36802200360656057, -0.2885540557850497, -0.5540617264226676, 0.8879729493202404, -0.048559612218800785, 0.33090245954297154, 0.6670309599815799, -1.5655578387172728, -0.3937553209612932, 0.5859135556125401, 1.4405498283994265, -0.9480601187322132, -3.8922555949111186, -0.3180781254559305, 0.519411309356082, 2.6621142674553258, 0.015092386407063483, -2.312229654617754, 2.067468116282547, 0.5761969283060346, 2.130242367838228, 1.969019739964104, 4.962388070556224, 4.1464724684543475, 1.4194596281858218, 0.3279873114732892, -3.796190882518543, 0.7318420060348646, 1.0202683916571127, -0.42871579760845463, 0.823423268146164, -0.340324458409494, -0.3968360196464353, 0.7965829568577366, 0.5042259388238336, -0.07384498576141464, -2.3392912784311153, -4.202610221500975, -4.415907222373542, -1.4795938797156316, -0.15819555951366304, -0.9269432295493987, -1.0525629579760913, -0.9607223815868734, 3.842739999803322, 1.8693785090147454, 1.2059724711013289, 4.252743904038339, -1.0328378410393393, 1.6810103950691584, 0.7135019240488426, 3.0343819431096617, 0.8475350623168654, -1.7363909146693663, -1.5164929824026538, -2.8621429028534164, 0.7377263909693036, 1.755512855232483, 0.19428869514977348, -0.3179051557940101, -0.06364382094709464, 0.15772733857085314, -0.17719008797701777, 0.20305667850398465, 2.863313111230477, 0.5911527531993509, -2.730055899446793, 1.8852838106261256, 1.6755890580329749, 2.4586183495205858, 4.493061736846918, -0.33971568278615943, 1.0813798731681807, -2.984190492045988, 3.379632888117946, 3.525599659654974, -2.8010715737582594, 6.219036618303272, 6.164365240639241, -1.1112033341724494, 0.12054104399052137, 2.4620311806359934, -0.8171911470640834, 1.8512530227273767, 2.3863160593851473, 0.8182136922817864, 0.2535114192141446, 0.7353167069353613, 0.014910766759478717, -6.086294978574727E-4, -1.0330785204867425, -1.261393496115894, -0.14506217688916337, -2.3007027183056095, -3.029032832830558, -1.4970835881183855, -2.598731719042203, 0.17477004824862102, 2.606501851409254, -2.0096363742494385, 1.1347625274305437, 0.2793242718829754, -2.3789962339586195, 8.808657675383369, 3.0544947943899143, -0.6647002738195003, 1.0354495439462852, 0.4256889188633422, 3.311159425110484, 5.27129290214827, -0.3327582153668854, 2.0404164141254304, 2.1305475352375325, -1.7112838662438932, -0.004315693394438469, -0.04437898785671366, -0.06460586343775714, 0.5925580264651689, 0.587116394389082, -2.2406068908489445, -1.8832252139620203, -0.5346269330743865, 0.9675769555949303, 0.6550058450633744, -2.585884313952043, -0.24826608312280715, -1.2458611037670584, -1.8248565391364902, -0.8332692204601919, 4.7537772215805685, -2.381624898311166, 7.2575725193418705, 4.779177173155866, -0.3382167300639856, 6.240474509480313, 2.0784566597642162, -1.649426781966141, 2.627991212753686, -2.3843877994129667, 3.250947348066621, 0.9378406989663459, -0.3841480026350877, 0.23298320875425418, -0.5204869261570925, 0.5648187206932442, -1.8614383033822903, 0.06924901547430318, -1.8267299482849984, -1.8820449093819085, -3.2411169109337377, -0.35980432967917336, 2.521991563353796, 0.1206334821099001, -1.2948517364454095, 1.16637074337768, 2.375799769899648, 1.3452068378350481, -5.4245723555412395, -7.264684952398651, -1.828141017223689, 6.316422984796676, 2.567075720220371, 1.416465617112067, -0.3263734147213337, -4.075650405588416, 1.879029826029754, -0.555286780532418, 0.7277862261595875, 1.752651381950747, 0.5558422155544303, 0.6022674676130598, -0.9642991342879307, -0.15543873031483238, -0.8167884148829462, 1.0467595682118964, -2.814653357275358, -0.39825745717642247, -4.803071206918379, -2.65688874429687, 0.0037656926549348127, -0.3102946939689351, -0.6675332230130454, 2.977922492480106, -0.9004489698200577, -3.448737029850137, -3.422397442796453, -5.415915553070663, -2.385027726765265, 9.962544559120214, 0.7247581219704762, 3.520104036383075, 0.3143336531623429, 0.8579579059405237, 0.6179898981077816, 0.4946088121441171, 0.6938392049746807, 1.1769292317909712, -0.31264336714644203, 0.30134220655343263, 0.013072117678413615, -0.7173693735664806, -1.3386188327744566, -1.3412986985700297, -1.6029082457580042, -1.8531787701640359, -0.9167788439388831, 4.035679386055636, -1.0498478599888603, 0.10585073660728561, 0.2624110909681211, -0.5196673073261656, -3.656343000739266, -0.8197337977998785, -5.9045154173299945, -4.319106272890477, -7.80448725351441, 0.9479428282313278, 3.0656282783530076, 3.024883861691473, 0.7424547973250428, -0.7637023784717374, -4.004584449818773, -4.295364347989292, -2.446044444110538, -0.09443600896882136, -0.20488706820407843, 0.32103510787514794, 0.7960996512470794, 0.8134201358749487, -1.0755534223809553, -0.26688494564079074, -2.2847752156483607, -2.5197068636704882, -3.782340551526566, 2.598125158830761, 2.331017487847339, 2.119109010906345, 3.143177103198819, -4.19932969751111, 0.25985035420727753, -2.14711980570957, -2.7275219002617144, -2.071328289652319, -3.5152258935517, 2.3094730255655427, 2.8179069975023014, 2.8848786718403496, 3.793774432861104, -0.7083170055358464, -4.02084142029764, -5.47998199125675, -1.8212847539023778, -0.30024880817973637, 0.6703290280709088, -0.9632990529583028, 0.8616040002474286, -0.6166839990410452, -0.7361703713823664, 0.482645335122763, 1.9526720305447087, 0.3012233494900631, -1.8193324510677187, 3.105060239784921, 1.7250842779712297, -3.545121390916046, 0.902041139608214, 2.3996847857010954, 1.1995652635313083, 1.4133760655416223, -2.957711678505023, 1.8692880252166189, 1.585189902228168, 1.8630652041042242, 1.6689070576039702, -2.205673604897016, -0.5177303857661818, -1.7937984799402868, 1.8526886880519622, -4.1728731388032605, -2.168327790258115, -1.2034475877032533, -0.9174486021068998, -0.737065749686936, -0.7222991039353462, -0.17211291766153916, -0.007376335900893136, -0.7191711156957866, 3.391366077327051, 3.1048629735136997, 0.38018035921759685, -0.535278491799831, 3.6730647589048293, 1.7076058376012897, -1.198143659543189, -3.769508573407757, -0.8329402723549787, -0.6985645799631919, -4.133236454306784, -0.7262522280664743, -1.7860417298047406, 1.7915523344081254, 0.9024112861421918, -2.991238263367529, -1.1736386439563422, -0.6056868330726244, -1.3114469708947976, -1.0691253985788682, 2.035553349733286, -1.068884214529035, -0.48663770961857206, 1.1755046933257935, -0.17656082597734077, 0.21236740342915875, 0.8838256366789039, 1.095661874727511, 0.9217321754971354, 1.643684740758366, 1.5671436948225743, 3.5083889952980076, -1.1429551944138703, -3.6682719412532214, 0.6047032837144494, -4.695040267848205, -0.6139299674220622, -5.733326263894976, 0.6454142170692337, -4.147678855148535, -2.219517492051013, -0.1093970132436966, 0.8596802254279257, -1.896412712567173, 1.0470600363265246, -1.289213426689129, 0.13800099358593584, 0.8532443545928768, 0.6685866271251957, 2.1957345078034782, 1.7980499284068874, 1.599684701568758, -0.03303875998029482, -0.632434309394289, -0.21076858333260312, 0.8209893493937578, 4.066917120940334, 2.900914860741908, 4.712049275195946, 3.063986348324311, 3.313074420978269, -2.413988941490547, -0.29362767589773664, -0.9724971923858196, 1.9926050651544294, -4.3068186928930405, -1.399675844798264, -2.1483701319425195, 3.166969523011576, 3.714388557058027, -0.44317948003126834, 1.8938145716596462, 0.7296533722951192, -0.7907248167131257, 2.3673532697714053, 5.256469050100281, 3.390807092541236, 0.06744508493166294, -0.07546325905451526, 0.4077495715591927, 0.41908288590316817, -0.24637675016661748, 0.13416967001145122, 1.6573904353193372, 1.7050442125810683, 1.5989888482821868, 5.227765965032732, -0.5321807492378771, -1.9807542708561041, -4.706409929476083, -2.545998454085559, -7.2611873531548055, -8.962710567959945, -9.760916612577757, 0.5856174350129927, 1.9201246976165807, 1.0568509643487758, 1.3471942351458128, -2.1023640517537903, 0.504997906175059, 1.1180505259784574, 1.84098099739866, 1.7511844856621464, 4.4429448039402555, 3.2415765212557157, 1.5787125804565862, 0.5456999588090636, 0.4155768908205269, -0.3411835892408062, -1.2643920263479325, -0.8795654934710709, 0.34453148548040446, 3.5403894697735394, 5.6994138755859804, 6.713974398896479, -1.6146351046004896, -2.1931292325079874, -1.359040901709477, -4.706996493763578, -1.6667656286508152, -0.730412646543215, 0.2436762570369479, 3.597856572132912, -4.745692578639205, 2.2373531764696843, -3.1434440414988005, 4.177022756361356, 1.692741229063122, 0.7806760358718879, 4.192765773928454, 0.8637559610429307, 1.8938829065650449, 3.95577765718866, 1.1716093232780915, 0.717552747084164, 0.31319453100157046, 0.9160095702641555, -0.28933830088659535, -0.9084805442798517, 1.790803232026856, 2.4049859762372963, 5.590063498481807, 2.496596014710296, -2.6722147710414874, 3.1285336390234373, -3.9697285761257803, -6.972556374176767, -3.1113249677550066, -2.0015175573789747, 0.24684504141657473, 0.2532444507044297, 2.014749808287277, 2.067111221526589, 2.8242589243155423, -1.0606993895740124, 1.574860070706877, -0.7274528526483846, -0.13351273163045818, 1.5193165821863213, 3.967003031355273, 2.6890930872317527, 1.2636487592294543, 0.7201362714696244, 0.32105366311121675, 0.33816813459970513, -0.42696593991216686, 0.5221441068408479, 1.2227907652071985, -1.1879938660893674, 4.394267431852918, 2.3350424189645635, -2.5513442949400105, 2.12646313757151, -0.8623390434268415, 4.273086511972365, 0.23863849954960958, 2.9027462335089322, -5.4689227497160156, 1.5800291652561047, -1.1981243689223018, 0.9344325271725636, 0.23396776123169877, -1.6615840534748638, 2.746757908503872, 1.6840758432559915, -0.963440146310813, 2.1475779439671183, 1.5678612790958155, 2.7622968056433437, 1.4062515572416483, -0.6698840367773473, -0.21329178761472012, 0.18514782244506497, -0.915041132917173, -0.5682176591253973, -0.05900328381109766, -0.6945194785083455, -0.5705945455293538, 1.4166832076919071, -6.4878440569706655, 3.0308996506502734, 1.2876923033531977, -3.520677090654144, 1.5437978987379162, 1.7540952834982102, 2.229213316226308, 0.7861673691867682, -1.9365518757276714, 4.880492009592628, -0.046215435075101285, 5.63706666174613, 3.015083299160136, 1.9460109105922176, -0.5978031393045664, 1.0962216618105383, 1.2591065183957995, 0.5541397974196971, 0.5217073123457404, 0.7043183485375172, -0.4141839564389988, -0.9928595237366411, -0.4506773489640581, -0.0681725139540787, 1.5765147559373778, -0.6890692786406135, 0.932992999541731, -3.412034373299648, -2.11211972428426, 1.0144030753275695, -1.3777167185015615, 0.3433186974309078, -0.22073623069859796, -2.394254961942391, -0.947124012442178, -2.6405402468845534, 1.3026000799194952, 0.523767894750098, -2.647805367746412, 0.49151226456399594, -1.192564476284338, 0.7554403150823518, 3.580403815618477, 3.4057878061449807, 1.260639961956711, 2.282146108739308, 1.0292846921268641, -0.9296653358228684, -0.6936868125851634, -0.39276427109010537, -0.9025620507746688, -0.3521750863079105, 0.9195198173564123, 0.32287072914743037, 0.8033151799597252, -0.13615884798574612, -0.8476763996827887, 1.957002712931865, -2.913596736940858, -3.4821303323842514, 1.6642302429699753, 1.8843595080503537, -1.0750895709492916, 2.89124829161842, -0.4597256457301081, -0.06588845764550913, 5.669499218524697, 1.4170186108866203, 0.9852881382082979, 4.069125223809188, 0.5111610637385683, 0.9067836731866885, 0.08902317868885483, 0.5697192836110451, 0.4198975681369824, 0.9187136834798945, -0.1097008611206578, -0.11141790302499843, 0.9975038070760462, -0.42562479011426396, -0.13677945326556754, 0.8154999232149818, 0.8691837542319507, 1.5232630904117217, -0.4640985498281498, 1.0659068931039104, -0.5321264581703077, -1.6816100727785586, 1.647250062727084, 1.7973354755247617, -1.664558176458777, 4.866640569516441, 2.9896542767584338, 3.904171179635377, 3.0680095210170606, 4.245906178386348, 5.433733881310725, 4.500983412554175, 1.7337297347667133, -0.36963660453938213, 1.0668821353755622, 0.47526980096273774, -0.24957548401490384, 1.0419761081922858, 0.8903878307004189, 0.6686056465966779, -0.8269287408266628, 0.23822388780022452, -0.8554272795946395, 0.2493572837294968, -0.1381266994580521, 1.686236305172856, 0.8225305127701831, -1.0008576239398643, -0.17995627848111528, -0.7741438192042045, 1.4004673285863043, 3.4644018802450853, 3.559879666952252, 4.121770195481083, 1.4519314990284726, 0.5385989458870131, 0.6735615365715957, 1.9448883165570705, 2.044651933300375, 2.239540535822735, 2.030166256637365, -0.39944950484324016, -0.6704399689928189, 0.5181316867902516, -0.4637558280820073, -0.513627205563401, -0.06738797830113108, -0.06467612406448864, -0.09583578938505255, 0.8890364090143541, 0.9298612760247935, 0.9628482292549805, -0.2339234998439319, -0.09954879078466719, 0.0564130724118868, -0.629269550747355, 0.1279991093877983, -0.6906921076409603, 0.5659909084727579, -0.500742559370579, 1.1161176891260418, -0.8103685718456648, -0.36600750310148167, 0.3589751783453685, -0.2657984970665039, 0.5014067106314479, -0.25484578126301666, -0.25427638086479665, 1.32592385789754, 0.27303072815081464, 0.22579302807942173, 0.615971181098772, -0.2926315950512195, -0.8649735224166704
-0.35735688102032315, 0.8508688680697725, -0.15815227219260675, -0.08074924729393684, -0.5342947989553888, 0.8236514245098119, -0.1837914916261021, 0.028833734344747564, -0.6424633423617523, -0.515855468767572, -0.0074723802017757635, -0.6273105498519032, 0.28138420690383104, 0.09749839109252521, -0.3802103620950488, 0.5745375601441084, 0.7003607419992463, 0.09070691390164254, 0.7239584564594816, -0.0194493083314764, 0.3332297353845979, -0.42412971655824316, -0.10461951024551674, -0.7193939279630044, -0.8362376671045355, 0.6793134028762322, -0.15359527534829787, -0.8759397138404674, -0.14343995315326086, -0.925086879410091, -0.43725443875305126, -0.715202913890062, -0.015811251747810617, 0.673736054519604, -0.12863287489836475, 0.16655162810702812, 0.28474753174831396, -0.1096876881517997, -0.5144409039077463, -0.27208990626950585, 0.5300896361224621, -0.5054453734996869, -0.49075473908774975, 0.3387187257128825, -0.3457665163281021, -0.2897533879788292, -0.01625557601568387, -0.42984411487939034, 1.1357506931845258, 0.012037973321582136, -0.37370212904637135, -0.4068717672825898, -0.7599650250921653, 0.41847923287494115, -0.5403901720000728, 0.49864349153030596, 0.4393467582932016, -0.31423134788866025, 0.923211962705266, 0.9975291858788067, 0.08551685197005346, -0.9085559865688667, -0.06758701253499558, -0.2999946567884131, 0.772106815075393, 0.2908456361005817, -0.1278911365707131, 0.520395851200353, 0.42496418837561994, 0.2736539962549163, -0.9585855563095342, -1.232483736838455, 0.49922301241587513, -0.20554122088773558, -2.1874974444008948, -1.225929632019452, 0.10479725245767098, -0.294662753725338, 0.23409017345638464, -0.618357679574586, 0.6191041394472424, 0.9447545874376825, -0.38306369557641073, 0.4374068906356925, 0.47375302453651824, -0.8804914190777924, -0.5564349276125609, 0.7322754660093197, 1.0797950373985081, -0.816634960733528, -0.9816793776772262, -0.5041072625321581, -0.8013819442512279, 0.29693237648246357, -0.49484726312890065, -0.4543452720794344, -1.7722804615194332, -0.8044658079593532, -1.3327131463125672, -1.738101408760823, -1.8077375049908766, 1.7176761080618888, -1.3854501953375853, 0.5442453003542824, -1.012261809352989, -2.539297235607471, 0.47901511863807816, 1.520865116271242, 1.4560746325362826, 0.709990004970676, 0.06759907431265591, -1.1396192490313353, 0.9591060110572751, -0.8724613665016512, -0.13900703790451704, -0.05380360540531406, 0.718103993226082, -0.9737425966048862, -0.3030005629293242, -0.9011676979678311, -1.3523329688924008, -1.6597213015146448, -0.45476703145571984, 0.2506934699742464, -1.902865054166116, -1.5696335329843882, -3.7361172591484646, -1.386784892684248, -0.6623636704828448, -2.788707359889012, -0.4893107500429996, 1.6428267934793905, 1.109127326621102, -2.8146961346813786, -0.7255624260873295, -0.4296168366779102, -0.42512275273158456, -1.9680559210791118, -0.6551887374197178, 0.27401449280008133, 0.4611710344632833, -0.2293761485581136, -0.16455406360316704, -0.2924965740902003, -0.49166659656908857, 0.028734046499961273, 0.43902757274828397, -0.5219557949879648, -2.211253816351901, -1.8462528440046366, -0.1330172153784522, -1.5486154983312002, -1.2665095490736031, -1.0044415893564136, -1.3080510395962013, -1.5508597391209673, 1.9725307298112855, -5.147226421853676, -4.1988661718015745, -5.11164321558757, -5.02357365643185, -1.3859872957273889, -1.8990588400430255, -1.7144425840056017, -0.498848889777571, -3.0804568120128346, 0.49062798241039124, -0.9119869583203494, 0.5159227373530844, 0.9224536311720393, -0.4240028099733653, 0.6371258337509691, 0.1065361746267609, -0.4159366964994158, 1.1148148085205645, -0.3443788935541864, -2.634078875234141, -0.7538199752232886, 1.1431099014984112, -1.126161895663266, -0.3984884510874482, -1.4167214501548941, -1.679049080902715, -3.5388083871954166, -1.7020371075912935, -3.8775802025883803, 1.3815970697327116, 0.6206652457735163, -1.8133514307397862, -1.9626960616249634, -1.3068923866241653, 2.807911310793538, 2.4442390677146397, -2.182174045541527, 1.6763300521451294, -0.3128097683719048, -0.5705234081352845, 0.6484228071261149, -0.10502633653590532, 0.016683847106044106, -0.6302232392439896, 0.09527097384778703, -0.424395310280089, 0.14310076033017224, -0.1733818761142495, 0.2233373988423967, -3.5222795685231376, 4.109260075117833, 1.2602329885950883, -1.9351948683567028, -0.4516223425235189, 2.1174564030955816, -0.3568738193357183, 3.1077558954495417, 1.5868890798209125, -2.3878961418263978, 1.5210402384848791, 2.1548672008973253, 1.7595849012243387, -3.2766778961633243, 0.5434684177968047, 2.1260606513483356, -0.682775947043529, 1.026212435065761, 0.7651098621833043, 0.15515766620515706, -0.28512476778518053, 0.25655177935544954, -0.09540803708676067, -1.4432482992833755, -1.2911850067960062, 0.16209051325214696, 1.9539880504804725, 0.4019243232676432, 2.362291267774152, 0.7655254547979565, -0.045854579789541175, -1.2972601743696504, 1.5979796837047122, 0.6879059086381928, -0.558187012313821, 2.020619439775277, 2.7706756427088903, 0.22766780423520888, 0.6541670745794564, 2.382806219618609, 0.27957880051454687, 2.1354480751229974, 2.6349590386612456, 4.782806493483845, -0.5795412874254477, -0.004940819691088806, 0.09962520958638874, 0.7746740849911589, -0.836374974259712, 0.43991737946496345, -1.8382360806453246, 0.47604540715833277, 0.37897484177082147, -0.6035665386758069, -0.04984436645089515, 0.23379367451018743, -0.3582262715915982, 0.5016438947010949, -1.487476419993665, 2.9167382391810723, -2.282331552884953, 1.500063591351555, 1.120889810746681, 1.20365849087702, 5.097133638027177, 2.240657030715896, 5.0855014758172565, 2.1750105849224632, 1.2684033299443986, 0.671878093980877, -0.7550691647723038, 1.6632955841719614, -0.7863748368508556, -0.06250756059869719, -0.6419044484025289, 0.6511125246812262, -0.3655330597379101, -0.8843668488324387, -1.1098582013493847, 0.0899689889463658, 1.3302593753892764, -1.9461928323553328, -0.6940447874281815, 0.349823666401063, -0.19255526502365183, 3.805497030770574, 0.6029153033827, 1.25219161886512, 2.157932333614067, -1.4802368768772145, -2.5548235565190707, -7.609548289152472, 0.02543759413970443, 0.3487323499731544, -3.827257622500574, 1.496712893514709, 3.2986196614715806, 3.3047890730093745, 1.5970394723587173, 3.174821385063845, 2.1925322182966536, 1.353013890617728, 0.21999780125323878, -0.557954597684796, -0.9453605169080141, -0.04254432002823597, 0.4082403444924372, -0.585163880683921, -3.2911665740835905, 1.2104703143430349, 0.44041462857518876, 0.24306636152290625, 0.7388787230564048, 2.24169533486548, 5.498809942967747, -1.6076129702185313, -4.892735472387556, -1.1734702472439973, -0.04336404495332669, -1.2572710612069302, -0.4203624408765326, -1.9564634426471645, -2.673287499603125, 0.37111759159134194, 4.628604445859639, 3.1217006385215034, 3.339650861378512, 1.1122991600528989, 0.31372865998787974, 0.8428169485773227, 0.956741451880396, 0.41997532483616834, -0.10268468148784005, -0.16026837470989178, 1.4570781344946562, -0.47734129158765226, 0.24767467207592322, 2.712818543459659, -2.6867240403033095, -1.060175484494595, 2.2632410797092053, 1.2447705076524755, -0.2681924406688509, 3.352471966126789, 7.229243464527203, -2.3510408505939853, -0.65406663487543, 0.5352557564035034, 2.822738640114505, -3.7245038817489844, -2.6227009177162324, 0.06562498737415391, -6.548833132349415, -0.4213366231570257, -0.3143889940011633, -3.8375414264433423, -1.0571335723068087, 0.3591050301135817, 0.2233584638310344, 0.89341040791012, 0.2805523771319218, 0.08206794244319224, -0.7659301574137043, -2.7570162608423883, 3.758418104878817, 1.0985900895279266, 3.257320561868529, -3.2042955752709266, 1.9440264978209676, 0.6496027113552124, 2.9842848681338117, 0.5711513658085602, -4.111884474547915, -0.19879936350311353, 3.7335394694295645, -4.623967745859501, -1.7185745936693662, -0.3993642592000174, -1.0467993321746203, -4.27958275726266, -6.833874799933131, -4.753010068102968, -6.545943082087882, -6.195405997225149, -1.0815578333774043, 0.2067453605486492, -1.008622862336223, -0.18057650952587057, 0.13531481381072938, 0.9534445801370941, -2.364384326885109, -2.4391028861828477, 1.974456852971775, -1.2533319220693462, 3.329141688520721, 0.7727788041054798, 1.1695946436577607, 1.6845947010746474, 0.18264844261915936, 0.8141208418828427, 3.634432296224554, -0.10244116175069054, -2.3334845118148055, 1.6376005994883704, 2.429776394922026, 2.254868226008685, -2.870635280060969, -4.402173411994778, -8.219621966491921, -4.186787482780402, -4.905628704595139, -1.4892978364553389, -0.7070373209190094, 0.17925129787407285, 0.36298275837898536, -0.2497016539604863, -0.08040394223111626, -0.8126373273996162, 0.49123347029638115, -0.7685894659310547, 3.2779111933603717, 0.5418801086921908, -1.6207528211309465, 1.13165763351487, 2.9012316751069585, 0.8892456980793618, 3.881827295759488, -1.6140794078588343, -2.2968806878592165, -0.8342645370864948, -2.1475458780903103, 1.9649263148197706, 3.831843775983691, -1.6955261030311244, 1.7152507153215175, -1.4537723096397395, 3.242860119507351, -2.3478870400356535, -1.8007793522919011, -0.46342341952253535, -1.6801945796489732, -2.074715255599258, 0.9882388580315414, -0.47270406711360613, 0.11898421982417538, 0.22455282848064884, -0.31583121428909905, -4.043872507396124, 2.7095570516115193, -0.9528859902909468, -2.2625544176624475, 1.9065202325051072, -3.856821458277793, -0.3054627867717217, 0.04697680793941557, -0.36318841491078474, 0.15827995125490282, 0.41586498740367095, 3.002830659012474, -0.9778154848098527, -2.6048236138728256, -1.2369823630153214, -1.8501800940248458, -0.9904154340380243, 2.7041886729430495, -3.295553665154534, -7.403045931985051, -3.488177156717621, -1.3157193426363718, -0.36246810584817335, -0.1915033167175239, 0.5856743503717781, 0.7034462841535325, -0.5869024390067511, -1.963331905932946, -0.023982443520611456, -1.282344650841071, 0.569509650108637, -4.978202453530887, -2.3568881319016515, -1.078162676470689, 0.2618741456430819, 0.7712060303965024, -1.118657142137967, -0.28823635902627787, -3.0904862961118966, -0.7920040565785872, 2.8870656296184607, -0.49557220993144363, -1.7338425344356831, 3.9386731802888497, 0.354108341503389, -0.06829432216313643, -5.9984779946005125, -3.6507436792961507, -2.919789650940947, 0.16481964623367293, 0.28598050801775443, -0.18052306389950748, 0.3388059728480565, 0.21199980382323336, -0.3737020989133197, 0.9210563801969441, -0.1091866121197481, 1.3583785645184898, 0.771855323712507, 1.9115408215082046, 1.9554426207894573, 2.3341662537101744, -1.8183447301358562, -0.29197324558987137, -2.9622883593150746, 0.08091247635751654, 0.8616159788298117, -1.1001928162233467, 1.391064680191074, -2.330665692244901, -4.970494930107365, 3.0307514204764763, -2.9657485697657044, 0.08906104255281597, -1.8383904612488586, -1.3856108982427628, -0.4478304005576235, 0.8601816630262605, 0.9077000220312673, -0.8065052200984383, -0.32190138128099954, -0.9687838149104642, 0.21292485128675703, 0.45618829821418055, -1.4911179599485531, -3.640245711966475, -0.679249673059577, -2.7758889729211975, 1.1244394973195018, -1.424360943077772, 2.2072687303377965, -4.284204527038891, 0.10740219165771012, 0.5614501123257102, 2.4370615321168994, -2.6027725839757454, -2.2028998241305184, -1.6252174435974525, 0.6959620221557311, -3.719365804414978, -2.9836469813458657, 0.027511559498314735, -2.2325623562997023, -1.4294831686490528, -1.8749259006014587, -1.4999798778857785, -1.393788558239727, 0.6808156083039356, 0.37256347309668647, 0.7322214478529854, 0.05440031489159467, -2.828709460132516, -7.426864510849749, -5.335884822572951, -1.4650733053577842, -1.3458942152252191, 0.5248601998124115, -1.5125330473995655, -0.4133479732036466, 1.0245149749050102, 2.190755666645951, 2.8323216704385263, -2.905840091271854, -1.6145817702999623, -1.4895193224388754, 1.4110825355902592, -1.1737500767469644, -0.4168716123934384, 0.08469771124447248, -1.8951293384284251, -1.3429026857590916, -1.3155366225357334, 0.4787728040301544, 0.037993275827777014, -0.8804198484789183, 0.41484469341423913, -0.8122909023605173, 0.06515508068252164, -0.4767935930238619, -2.6768910263916457, 0.44737500016584825, -2.100337436745284, -3.034584445767615, -3.8520765295527952, 0.31727298015250677, -2.8687190384454198, -0.13258610865056977, -1.037162290876949, -0.9688327562668599, -0.4141074864131303, 1.5073097774356317, 1.6115300497815228, -5.227153100014974, -3.352464825882489, -0.7585813389159215, 2.1792228437945664, -2.136526246779064, -3.9587169824762873, -3.583794852637306, -1.0739568911470727, 0.3927296337251913, 0.9473025484862483, 0.9160711204082478, -0.29651805377866325, 0.9753101833430744, 0.5360249594976759, 0.08921087729669548, -1.945166575598921, 0.7129739470902892, -3.1139013722350923, -0.639627034143723, 0.04417083881979666, -2.6495339235728657, 0.7856368939153933, 5.5339282138539545, -2.6308161721919725, 3.3031593579645047, -2.076690547259277, -0.5203630936041677, -0.07957951571889794, -1.1398562231580918, 0.5716635877038102, -1.8326739983718896, -3.864175654900989, -2.9469823885980913, -0.3816085452612181, -2.8856595064281385, -0.11591487570019827, -0.2456074033405767, -0.9806634336973082, -0.41791816859600783, -0.10253661661569773, 0.8790121063118665, -0.8099438640295886, 0.5412492116659432, -0.7836556585140011, -0.3621717687923125, -2.5741306811371025, 1.5679165547606873, 2.9802668367846716, -1.384036772530752, -1.2357197657932562, 5.537637157832945, -2.753913626010706, -1.8387776014315338, -2.3202176087959425, 3.2352561202883323, -1.7884186121633563, 0.2612238672472852, -1.8903150873312216, 3.318791690080761, -4.952908630699224, 2.134661437604283, -0.2733057868093153, -2.5709803250276595, -2.14976618716594, 0.8195255588818928, 0.815068499146161, -0.3239720643378435, 0.7141267878645319, 0.1334321198180899, -0.11310579269228227, -0.6016906896061801, 0.012266864092418983, -1.4205301631384684, -1.25526529347365, -0.5688641595081726, -0.813112847027615, -0.017718597458891854, -1.2888635765820913, 1.008202190725253, 0.25840473707157646, 1.4095515671831156, -3.2930777370540647, -3.980889586874989, 2.6205153047146115, -3.038358077451196, -3.1804270450795444, -0.9574139308451052, -1.2221495796040502, 0.3103576820189288, -0.6301422246912609, -0.23756662873168866, -1.1493121495550835, -0.31851768497563737, 0.2522018713611541, 0.08300196004817799, 0.349221463801191, 0.7012294661956868, -0.3057919917024505, -0.478391582926972, -0.5345940540023839, 0.09627121733366717, -1.0817035503928425, -0.9981900535855041, -1.1335913914171962, -0.9203781856395693, -1.262110205825708, -0.866082988313305, 2.9474103057475527, -0.7957069662274866, -0.2942448642198273, 2.7349344013660324, 0.05694966822071746, -0.6915626755213491, 1.2110924101463725, -0.4591307930345682, 1.2022561982853128, 1.7458104305192683, 2.7928451575461035, 3.0554395093131546, 1.0810185744585046, 0.4282639717672083, 0.3572630546905019, -0.5158889828610828, 0.03837147167405219, -0.8022095716778392, 0.8024859101712225, 0.7254014192510247, -0.6276247205517115, -0.008723899215648596, -0.7631109092810536, -1.703127777830163, 0.2908020574483933, -0.27511397512456315, 0.28874624967832885, -1.648472609566921, -2.192221666527835, -2.419205999059142, 2.755682405291344, 2.21656264462371, -0.2779080534261714, -0.6470056202386638, 0.2730441223702078, -2.7086671550600703, -1.6215669875370113, -1.5964409410485658, -0.40875475137426404, -0.07899715549985319, -0.7988715640478331, -0.5933434509346985, 0.569553787252596, -0.33098591785602904, 0.6280621564674758, 0.19575208018785828, -0.293798979120911, -0.8944909993832191, 0.8853056171116971, -0.6393114899791553, 0.84720132361955, -0.05046468936463812, -0.732186741968071, 0.275810727318863, 0.14481602585989561, 0.43557434666956374, -0.7881100776823187, -1.6333446017151985, -1.0928725578294889, -0.9341085801458789, -1.397732931718301, 0.1561630233546939, -0.8523262600401601, -1.2413775556807243, -0.05272473795808811, -0.18159070246747827, -0.30444565282559555, -0.9941446060419737, -0.9142210971672771, -0.19165585067360125, -0.7303288719190102, 0.1727787466890105
0.5926127493421225, -0.9183325970140916, 0.8412356854756209, 0.4215740155066394, -0.23657962427300272, -0.21511171251344097, -0.024151976134030306, -0.541881417136747, 0.5566463255544105, -0.9146282343275085, 0.6999011619096385, 0.39051634446841854, 0.4483605006204603, -0.5364523239591242, 0.22374691132165864, 0.0349647341828616, 0.5448757395698365, 0.5169655945208285, 0.5677135111717451, 0.9606524019227582, 0.02050943767350133, -0.9997898211419585, 0.4235386597952884, 0.916843181070288, 0.850289891983782, 0.7317425233433146, 0.14896127186247932, -0.5379523104166821, -0.25194979850121424, -0.8453079172828286, -0.7902351179056399, -0.948325169299528, 0.7228312538444175, -0.5670016725028213, 0.2600931891761022, 0.31675197574668035, -0.25267170644393727, 0.7049486826321353, 0.39435700293335724, 0.5998086211588537, -0.7269493399424991, -0.7167090777401485, 0.042309985132961456, -0.4625238474285762, -0.16838387408377928, -0.977575015125096, 0.23972599383419016, 0.17249827483671296, 0.06967718241877616, 0.3976130545180084, 0.8822519885117038, -0.981177247617268, -0.5124898994010392, 0.13883033872160988, -0.049108445425100955, -0.9237308816779484, 0.6657527121169402, 0.6122507769539662, -0.19300878308838443, -0.13333862355123074, 0.5144272724113176, 0.9281874609868441, 0.03071589015748553, 0.3242009072226948, 1.0120041358443133, 0.201837401210575, -3.103542718791713, -0.2529893849464097, -0.9154716496442052, -0.7774164001285497, -2.97425747966669, -3.578102587062085, -1.907456500689228, -1.3645307011734396, -0.249466933379232, -1.6991299778200655, -2.8998272066696846, -0.5149903377771686, -0.8461271537350815, -1.6218890838529356, -1.2747319470467688, -0.5635838675906747, -0.2300760022212812, -0.029905057818842673, 0.4781856421859445, 0.46022109977452685, 0.8848262446558728, -0.43183089875362646, 0.45366053668476564, -0.6601509706045751, -0.2572236623352702, -0.7336995808249742, 0.7486564504738308, 0.5417221497729724, 2.1551987070568006, 1.8068538512387977, 1.5753864718664274, 0.8072147874174229, -1.2535554388386565, -1.2495727472971194, -0.874578057450112, -2.481489500720804, -0.8708980991741764, 0.5735842629495688, -1.0262277050586297, -3.803314975349719, -1.1764702259711712, -1.1971100689879708, -0.414043489037921, 0.1424137653268004, -0.3065557396796125, -2.122321988731851, -0.6039966884993526, 0.21524786151100495, -0.7541848337961661, 0.6229537434972509, 0.5045315840302977, -0.21860855978372218, -0.9078956561210945, 1.6563700670177555, 1.3750979899233926, 1.3151459031953319, 4.778273442326972, -1.8522304412266204, -2.0920229819224816, -0.19964782527510047, -1.5548460244363824, 1.4775831157991817, -0.3191539038914963, 0.06112275102719723, -0.3326733554701619, -1.870604828206977, -1.1129955927015769, -2.985336413973434, -3.771934350483243, -2.9386449542414264, -5.091107637509367, -4.273571847204328, -2.6360327197701543, 0.3874776829264159, 0.8143159922759827, 0.5343823997527828, 0.8563169096884711, 1.0164104946182437, -0.6547006244867566, 0.4268153697730798, -0.8192115313588151, -1.3646208930596129, -0.9021225510012879, -0.7090142529653789, -5.3097782028840745, -3.070233156994391, 1.494321035533442, -0.8418398419953013, 0.563054131743657, -1.479770627450392, -2.014186216823544, 0.5046264763980132, -4.968061188070189, -2.636029524262804, -3.588132559557657, -5.197423887951766, -1.5032566962326133, -1.4491750822020284, -4.610692574931582, -3.21799949602369, 0.458785967914749, -0.7414105705582213, -0.5634215508738779, 0.612317010434166, -0.8988881355505121, 0.2760276678589289, -0.04380469914140484, -0.9672030207097881, -1.476490689092016, -0.597813152674434, 1.7659678983737592, 2.4306483938102903, -1.9189636721580692, 6.737179240607376, 2.4645053503630514, 3.267519263591223, 7.088564582190227, -1.0400755431890694, 0.8241879277626206, 0.03032015339603394, 1.0454683552808832, 3.6159152508557066, 1.5212020472174905, 0.643126484924876, 1.2786526370476787, 2.6967939037232784, 0.7124052663224649, 1.165916891855946, 0.4400369415404234, -1.7374576564508075, 0.2997557540747813, -0.6709363508302113, -0.06841939108971244, 0.33003899244243406, -0.5573862320197874, -3.6764714758332397, -4.508466681726565, -1.964017118681577, 0.9964805348448379, 0.5042983127147876, 1.1840925258665584, 1.616185522400764, -0.4121356801334152, 5.9904075592544, 4.160638416247429, 1.3790779356204272, 4.636674398631971, 2.5054170087718606, 3.753352267771945, 1.7576608803617935, 0.6120145942812412, 1.4477858354460744, 4.955460818908265, 4.55275668212868, 5.838230449382605, -0.2850970145486025, -1.6319300140090118, -0.23691660277307022, -0.17821089479557234, 0.7103216571668021, 0.35881986583484715, 1.0104156621613722, 0.6153028660904222, -3.638953654025011, -0.6814886128902602, -0.7851548483228167, -0.1438515787619836, 5.905584210932337, 2.4214840905839705, 6.95524649149974, 4.129294383803664, 5.16867212206992, 4.831303377963606, 5.568865745081331, 2.156613691461887, -0.404600778494214, 3.1634528265132404, 7.349578004073612, 4.360778568839401, 3.9857368251398038, 0.016913606236694925, 7.213184929067676, 5.010037854009508, 2.7281777206655433, -1.342090083627948, 1.215265379450929, 0.9950195487734217, 0.2831212430065341, 0.7245129666303936, -0.022483199335840077, 0.0453454874994664, -0.15503393891793618, -0.8698173580710579, 2.9034902002365746, -0.05952136430597904, 1.0212418232955027, 1.5537239218864394, 7.497754010158652, 1.4904593140408586, 4.108325541927976, 3.232828462032708, 2.2512133132479173, 3.925372262418433, 1.6264630091502608, 1.8873443151463232, 2.8494495205779358, -5.062111175509686, 4.0568938398398195, -2.2901466178147247, 2.4665137370535533, 5.458973067629284, 0.3064776422670734, 1.1732773380971027, 2.102563270848142, 0.3671427446410249, -0.6363210647127924, -0.7057768631353178, 0.8199346282573824, -1.8905476953600326, -0.3084167498522932, 3.1214305308721, -2.275084736767407, -1.6753749649759764, -2.0950551752005038, 2.0511576289287214, 5.315985353060269, 2.6052724829321283, 2.589462920051094, 0.5189720654012175, -0.2530007829858801, 5.122152841884746, 1.3949562148903516, -3.203856299341684, 0.3163964210357514, -0.3226524324278464, 1.6667567497695641, -0.4182460537071616, -0.15300754522994198, 3.0516231317323665, -0.6002431674786739, 1.6569764410885952, 1.684452659470732, 0.9362828813576958, -0.8061154827231106, -0.5464064581572675, -0.39919746148288465, -1.3932393354572525, -1.0783254569330731, 5.7971306764902995, 2.6737335386666063, 0.8170551764929787, -4.642713863124566, -7.426686002099206, -4.7363795151715715, -6.260272664052754, -1.5238934118897263, -0.13056869091420975, 1.0995899139354537, -5.519208598592975, -0.5580409103972325, 5.70422132624429, 4.5807273938207524, 1.8671220096987398, -0.005278608123185416, -4.943077961082333, 1.1078265752549268, -0.8947673871964323, 3.127033378613011, 3.5137222075050607, 2.1420210003558537, 0.09274696955723934, 0.19750721814103966, 0.43630492954501837, -0.0409177436885937, -0.6692580189780569, 1.7789421583660798, 6.1032953643261685, 0.29200163099703125, -0.7337725129797591, -1.2231940393303968, -6.801490276774316, -8.62241855249475, -5.340754520181376, -0.6115426374104579, -2.5076271188749706, 3.870962666749227, -3.0948189436690527, 2.7061961851614504, -2.037416767063411, -0.8329745321924359, -1.9400236579501364, 1.4648255384729896, 1.257838338673111, 0.9708092185894801, 1.2514327614512357, -1.0811999559011187, -0.9846139611053375, 2.630000645190352, 0.052320096569718214, -0.6145312275721826, -0.21425368737708864, 0.015485008695512524, 0.06843497800770638, 2.571339901113148, -0.9421831615195106, -6.489795677572969, -2.11394960700254, -0.44626738273773164, -0.3369792474507295, -4.362017446443253, -2.501367873377344, -4.656150198499759, 4.402798681055569, 7.841022991125396, 0.21344526324683857, -3.1223176459656186, 2.161351562269414, -3.4707557365488095, 2.2883916375073454, 0.6738413447460608, -3.8510231570965328, -4.005404147228636, -0.2830031208980851, -4.213315996365438, -1.0575504492333263, 3.2237312288029907, 0.9461667690903077, -0.9060772118988006, 0.009440950417567394, 0.08731806772960352, 0.16798140005106846, 1.4387179763926665, -2.8873046970769742, -1.5491589245235902, -2.564639342324598, -1.062005537319993, 2.9035182581499677, -1.759580650046409, -2.833990414164483, -3.45185362223751, 0.6803150084937568, -0.25995629343845994, 3.4927675130170295, -0.42774934488123123, -2.290824431890563, -0.17320976719434408, -1.1487532856702398, -1.542137552973899, -3.1359798719931833, -5.113670679719675, -2.970882557557281, -2.8644791918555663, -2.2881473132652173, 4.22082421802433, -0.522847994708075, -0.8413451929425437, 0.7735311664142498, 0.4315804924052943, -0.6744647920182644, -0.7638337848392384, -3.2796404299250894, -3.655945937406805, -1.0438700628706843, 4.152761923837085, -3.755151609282854, 0.7179825948923967, 4.121995413182738, -1.5047457193167337, -0.5993669593770544, -1.0813764982192977, 0.2977256266032259, -1.9081075803936831, 0.07496092689311912, 0.8533739160621554, -1.7910365941930313, 1.0404374682254958, -0.590782996719662, -0.7051522462526166, -1.1266583964761299, 1.8300117941266338, 1.3396347062942981, 4.476702070503474, -0.8629045527039895, 0.848372843080297, 0.9220757039886065, -0.1774874285616239, 0.17990218694539836, -0.13499107062899976, -5.181306867120865, -2.881936649226695, 1.6815224110854137, 0.5732018470612822, 1.75589754617579, -1.824143752613764, -2.7886547535921618, 0.24067838676426706, 3.721089089680272, 2.7491185950788464, -3.0971677235040884, 3.2594483337835913, 1.95123393979118, 0.21437326272689877, -3.5806876837421977, -1.0267853731770145, -1.9492481357603912, 1.383780292561233, -3.6722750125938464, -0.24246200482304034, 2.2056216068218646, 4.040858028440306, 0.12813329403724139, -0.017222347935950566, 0.4397576167367876, 0.19710305087162522, 0.36838966808269186, 0.8597982845044485, -1.26356113193075, -4.525879581689256, -2.8005442102940092, -3.280424582884894, 3.931582912075773, -3.5396617095892604, 0.8213397214166304, 3.037416778217196, -1.2931200515294594, -1.1111251224731142, -2.418170827379617, 0.6141837304145865, -7.375490110948983, -0.8169548748742006, -1.8107526042981854, -3.6958644956598277, -2.057952272139194, 0.4430497025536619, -2.8889368797556654, 0.9112261605432896, -0.3263603023862974, 1.9583537072735056, -0.10909502431913679, 0.8601818360174375, 0.4220405914806727, -0.5984230492157421, -2.340673817112826, -1.1310981744770563, -2.3412580000440575, 2.888485802988108, -0.37946727915939704, -0.08001060029107947, 2.311533967814167, 1.2614020105763506, 4.315249031871916, -3.3233615801623597, 0.7014728990517182, 2.1904540072830216, -0.42118810494840536, -3.498332489146064, 2.25122683749037, -1.01273384784816, -0.9026969986817966, -4.284430442445631, -0.2308046543351665, 0.9511716884645384, -0.5882772552319749, 4.769689138439718, 1.5275106815313662, 1.0350693859032913, -0.40990491943861623, 0.13435055443467167, 0.21430885875567376, 0.5163834046751296, -1.6972636351274475, 0.39821417959833827, -2.732339820414588, 1.257699934009945, -1.0593252158791018, 5.8251577045142895, -1.3936192143849866, -1.4636906172121706, -2.9407136971211094, -5.35317606747926, 3.1339549639274957, -4.024268170194126, 0.29671198003263144, -0.18383591610234395, -2.2072038943122148, -0.8904782115513051, 4.168807077216875, -2.9524967593428166, -1.158270989607949, -0.5287022304949192, 0.22667193030210972, 4.695932587184065, 4.307442023087613, -0.2715518986113218, -0.4683778963920105, 0.2952677219539215, 1.0353270045591976, -0.4909494577775454, 0.03256353289508678, 1.2509141074511285, 1.423096241447046, 0.6108034624493407, 0.34377232211027703, -0.9049516834671371, 1.1782399410388233, -3.903709538779398, -1.50553711014524, -1.508457940628375, -0.497196259980556, -8.066071716238666, 3.296629089880786, 0.19664678118259207, -2.4244945258577353, -0.34448058910689117, 7.952264793141221, -4.46721871457334, -0.12152794188430274, -0.26124762020930675, 3.765085314271964, 1.6107989971234655, 0.7565485778920553, 0.7226903982999436, 0.16715460258583098, -0.3875261071663904, -0.7248611327726111, 0.7294474460494605, 0.45408748661305404, 5.2951270722158865, 4.748523671715152, 6.70178723126804, 3.317631273501581, -0.8797247010116592, 2.2606597754536804, 3.719911646258796, -5.935534854254134, -1.2237303745779828, 1.4073011862338531, -3.5347236210320987, -0.9249713972369198, -4.411699762871434, -5.931197899732472, -1.0515234009812742, 0.4655135879254675, 0.9910901913937855, 3.404394864521621, 3.59741596204221, 3.1729548790129702, 1.3663832559913156, 0.05909081407785444, 0.6910948103146045, -0.48409501377650793, -0.8137446711965916, -0.5071768057284981, 0.5610666571769947, -1.0061252984041906, -0.34946340458951675, 3.182193203124681, 4.971079313560559, 5.944294911491297, -0.8695312286776755, 0.5332568505296198, -0.02429642555598614, -0.9809093559972282, -0.8638008028308765, -1.9615883141870478, 0.9892824081326974, -7.554760679178858, 1.2685611814565045, -5.510745715309676, 0.7340692349217324, -10.652924627933995, 1.774411586358968, 2.5937779511379673, 1.8479544821209832, 1.8590072060445655, 0.38921886087088087, 1.337566688248875, 0.45052549863385954, -0.8646549073155332, -0.13686507683276772, -0.9213911904571308, -0.1505435340267341, 0.4961900691253278, -0.22547065044102432, -1.8466644315826186, -1.3355189563612513, 1.42107691597837, 2.1301065813773548, 2.3114751250894954, -4.004515735270633, 0.2646437999119514, 1.0346624823939292, -0.27216857169482583, -0.4694141800180489, -0.315886574338275, 0.325470478190338, -0.8011356955856168, -0.47397479959773203, -0.728254795026767, 1.5736812462838832, -0.589401704382203, 0.3034305524880602, 0.680716497397773, 1.2651207183953423, 0.9398285236499885, 0.7557710467998925, -0.6590586955236164, 0.36273832951588303, -0.6778160180644128, 0.13987348745903513, -0.2686421459869068, 0.47572721145976543, -0.5447300005613049, -0.34416186139825117, -0.05137580776468645, 3.3841990021120445, 4.0332051781059715, 4.260341879310497, 0.620995307772462, 4.253515363903715, 3.9269341371150466, -1.4483133537377604, 6.498172573651436, 6.258902694131132, 8.522100412564013, -0.9072863989508637, -2.19934244531464, 1.722245886535581, -1.9490986722318449, -1.4851757653592468, -0.6596760194747567, 0.9964864153708023, 0.36333863365739094, 0.49355876341940624, -0.47409213280336693, 0.9774036190337978, 0.995173409895082, -0.3915987135274417, 0.831076183954156, -0.9675606164359839, 1.089438041059048, 1.322958483970047, 0.026189504076971848, -0.46913871169535176, 0.689801559729985, -0.2742121613859733, -1.434122778137345, 1.5712129080657664, -1.0463393371904932, 3.5294546794000894, 0.6240938164761883, -0.5703065386197794, 2.7898980411989682, -0.4623290320451739, 0.5745380539911421, 0.40249300028120666, -1.0653976727340042, -2.0065255447015136, 0.09792934552902513, -0.04743712276306025, -0.16501592739433169, -0.7880603617208387, -0.566902879740981, 0.6609044472881966, 0.793512019215322, 0.8390512707446895, 0.4648275287494587, 0.37204191733223774, -0.4496947921859146, 0.883533278621517, 1.0643474103166115, 2.4397475237610036, 0.8660817910045462, 1.2193826493050377, 1.3633572675845715, 3.8821662981081158, -0.029984670825914026, 4.816219537991799, 6.0647896383602165, 2.794340615364424, 6.18439561407969, 1.3489110195905636, 0.024219351784818762, 0.04362137416585137, -0.9690371993258057, -0.6411510770644002, -0.5741935296939039, -0.564878271993513, 0.948378269117503, 0.021932734508473217, -0.22941007621133735, -0.7838201502586826, 0.16954467364754255, -0.025529704791051655, 0.5118615601091248, -0.6889574314487514, 0.20092590076340452, 1.0577783177837008, 0.5081603802794427, 0.255837104307405, 0.24875578291425351, 0.6870514500753683, -0.07779799689946455, -0.06945356910006788, 0.11106382518214113, 0.7796377052751542, 0.2606159855204618, 0.7580944483324953, 0.8262865778813161, 0.4300836474468607, 0.89901358876603, 0.2930670750344159, -0.9241398873172151, -1.9526954900603837, -1.1427212239237359, 0.1989988383644119, -0.8246659954985793, 0.8515190635258878
0.7871946749787642, 0.6213521492648681, -0.20554480377641848, 0.6801270453268113, -0.6317427966095537, 0.6951274719655895, 0.5360241665537737, 0.5090406305190849, 0.004559332406867567, 0.4575434775179208, -0.4919441049668447, 0.7659006640059622, -0.5901895757933506, -0.7480501317563154, 0.5133666738118651, 0.3481968401610516, -0.011468984651070147, 0.4453129877379718, -0.47660174811750333, 0.7394515009721425, -0.16034456586678658, 0.4040496435101528, -0.34929881442908206, -0.948005404400796, 0.12747637799070466, -0.5637215090196961, 0.6235557833203866, -0.7321238471013145, 0.48844947576215225, 0.30113541820295664, 0.48691429855454227, 0.6232897224334468, -0.10567082210054157, -0.15912131624362405, -0.46295251014113337, 0.8182075678629509, 0.7064416559182912, -0.6909095486445738, -0.6557858906424106, -0.4655893783862917, -0.46573317472138587, -0.9516026261664311, -0.8901646555853586, 0.5688469574752578, -0.06181589732385214, -0.6885731858811335, -0.3389999204935332, -0.9797766738175719, -0.9160066716222831, -0.7596256389696067, -0.3368486580077057, 0.33045342520083976, 0.8241263886103436, 0.2319331776065714, 0.205010431710966, -0.8108323018040227, 0.17568561090380252, 0.3557806174415403, 0.9770260621280522, 0.015378609298543905, -0.5918454900444325, 0.7479507524603924, -0.02309637284048647, 0.034058044172873655, -0.43972667975216806, -0.5408352781825341, -0.9947663771697031, -0.35040782815697813, -0.8566057134963525, 0.6785873942964213, -0.012731888010480535, 0.5983272233907035, -0.735390404085342, 0.4828284886085345, 0.5007404860962243, 0.056163654785168673, -0.8872894741902652, -0.4013180609866548, -0.3641178242701621, -0.7547686842549877, -0.9023467618070953, -0.7199746878024033, 0.05956597621794701, 0.13214528185680452, -0.06983883756871179, 0.40228177976289303, 0.345355700493184, -0.7543806560248162, 0.6314582947298051, 0.5601009030816936, 0.10136291833479524, 0.8264635448721663, 0.9010048841259681, -0.12966866571631305, 0.654981213380973, -0.05584778292979557, 0.9118302519410506, -1.8917407504500643, -4.7591747966330225, -3.153319545467606, -0.03451579048568022, -1.987697036342442, 1.0260909163818552, -1.1977601974346737, -4.211636487800545, -2.592990524476554, 1.63369032730538, 1.5384924388242864, 0.46038681895756944, 1.830758535111716, 1.1819814103402293, -0.5545556688286167, 0.5412274800396002, -0.2373551087468606, 0.3850257646530457, -0.5109772871083076, -0.1498126347302494, 0.9742258934267932, 0.45348839521456763, -0.09875232732889891, 0.7464319253713579, 1.4896287796623624, -0.09149318282434966, -0.375641150304157, 2.568724051934018, -2.3004408262740226, -2.3582719701274724, 1.9292995636567492, 2.063112051640085, 0.833392796310152, 1.534203591481279, -1.055861598340878, -3.377783738550624, -1.8490359022729652, 1.9427683414189414, 0.05251325903405908, -0.3259249666493789, 0.4062099718206885, 0.8786532293785856, -1.632293579297778, -0.7926483442976642, -0.748399447868962, 0.4805598014325425, 0.47109316758179176, 0.8612024641678574, -0.056397835404539264, 0.3022993192127341, 1.3434473205255382, 1.467231159046839, -3.1338788854350637, -0.9075301953072956, 3.6765234183763864, -0.023350830069952505, 0.6151719688804499, 2.9581074275579295, 2.1145683461888463, 2.0637731780667177, 2.2427179677419646, 1.3237291734240773, -2.1984858861105843, -1.3903051000807165, 4.457466014039726, 2.3387515745228695, -0.5336579450757121, 0.0755717553555382, -0.41980848689532646, 1.8794652461578019, 0.13653570887214092, -0.00865725242515669, -0.22878170129464248, 0.8803962463387329, -0.8268164277888476, -0.2885189549849844, 0.5682067890288195, 0.6337750851977575, 3.552627166174043, 2.1591620338700874, 1.7768440978002307, -1.7113975069102974, -0.2824324330201629, 3.3431966061645477, 0.6750488327294419, -1.7069171856626582, 1.3112284527288645, 3.5005955744088726, 1.0712688570780984, -1.6984712976364684, 0.07527314426326184, 2.054054399046612, 0.09951754767046983, -0.5948223285397138, 1.636777707720706, 5.928500562452585, 4.3211505145966544, 2.507688299165347, 1.4372387051783462, 0.7843673820737271, 0.31245965167150563, -0.536970736039427, -0.8208475717335304, -1.4895839547341638, -0.7075798818794578, 1.7361347319563665, -3.5216620437329924, -3.320753982410393, 3.699081788098979, 0.9478387991765733, -1.3675940265963336, -2.3825584987630655, -1.6201019641452474, -1.0860776138156987, -2.127703190110675, 9.150558556551484, -0.446439586246372, -1.406961708192537, -1.7066700826316277, -0.4019255037119419, -1.3870355958297063, -3.6558820416360867, 2.6287237622082475, 3.094648087970122, 3.787481588734425, -4.796266721063338E-5, -0.8284741331664044, -0.8723902870787327, -0.20621536828288495, -0.4813991765314525, 0.0070498078653152395, -0.49224412842046666, -1.0444598086937718, 0.9830789283797104, -3.388809717122519, -0.8133183411065248, 1.9943344861223642, -2.2453705037933975, 3.897744018169746, 1.174981239867481, -1.4546317388435013, 5.334128983481179, -0.9499462763025003, 0.3062806545576856, -1.0289702343133096, -3.017455021084691, -2.550465814330603, 2.1694964851612655, -3.392739584618515, 1.3239259215885524, -0.4384605803226971, -1.8941507411473502, -0.11407347452342027, -1.0557170577289807, -0.1966651219896446, -0.06018802060072218, -0.565534864253281, 0.8663278423530454, 0.9658385873010914, 0.19262429252128385, 1.2467122500293106, -0.018905328942081044, 1.3520578756284687, 0.7328976752818379, -3.299867848727223, -0.6898523777283224, 4.51957691854394, -1.5026655378745737, -1.6420995055863534, 2.4537357023784327, 0.18239154906165714, 1.4421660798626676, 1.626307980655231, -0.05167848326604237, -3.743770730337419, 1.7607014105026835, 0.43193241024191087, -0.26110724164803667, 2.2973041707369433, 2.782232510588317, -2.5282211507658494, 2.6085028786838076, 1.9684767649109538, 0.3949844764821528, -0.934397069315497, 0.2408304042472322, -0.6158520027590703, -0.7278668794012341, 2.317714140154275, -0.9032697283205103, -2.3277284815145327, 0.42156145068225237, 5.040414003810435, -0.4041172664126235, -1.3448671219717974, 0.5495252085187616, -1.9742412011966766, -3.063903395374692, 3.453157250485501, -0.8128032171047581, -4.79452304497217, -1.163771296154759, -2.11954326673726, -2.0695755556186675, -1.1968669551651587, -2.2415425288633926, 2.799043921834688, 2.465123626121997, -1.7523817977190965, -1.8323211755821285, 1.2583503134983738, -0.2532191247434313, -0.07630030796440805, -0.5617884565763712, -1.6161825055837014, -0.9336337897302319, 0.1527827476707551, -0.7132734889044677, -4.215309256027736, -0.61597363031638, 5.4870077122119305, 0.7192549795517528, 0.34901550795603803, 1.4935202873163005, 0.4398047921875849, -0.3788423132757009, 3.997285648561844, -0.6696171962947725, 0.5579636660718953, -2.1013087911609616, -5.808762954763097, -2.783157051799246, 1.065661124450162, -0.16472436670146415, -1.6369675760245348, 2.214680989174223, 2.6380760236856164, 1.2962785699896124, 2.883427999498273, -0.6447443935806384, 0.05264706566474532, -0.2400271887636867, -0.6294732212090441, 0.5843844355508596, 1.679291016050803, 6.1428256969511335, 1.2637553653472786, -0.4547976172303184, -1.991262732775918, 0.16149580090747623, 1.2297101906996184, -4.089634930657039, -2.3092657720402867, 5.642926631982976, 5.102836333719668, 1.5345094506855332, -4.239580582027853, 1.9846181583727638, -1.212985794588451, -0.6086765390157062, -0.4469590523320993, -3.0085979670277037, 1.5470852263840238, 1.8685931377926754, 1.2315961322585909, -0.266703144667574, 0.6538161953533929, 0.15681023264093513, 0.4572626918188731, -0.5012163933235299, -0.7407431206464903, -1.6296165533966667, -0.6597118681402373, 3.0143328804960894, 0.9631942103500127, 2.6566118190206014, -0.5645394442444142, 3.338213587603586, 2.065000913563279, 0.2898841479989795, 1.1890884420740604, 4.858693913611293, 3.466509629919588, 2.3414982071987116, -0.5744648456293628, 3.593453044030532, 0.6492525433673697, 5.910807397886905, -3.6943188615210425, -0.5247225562988703, 0.13280361606112398, 0.13656702416025918, 0.2376783114341925, -1.381763441161075, -0.3102610657487945, 0.3939079851773778, 0.6058564083152498, -0.838111443070248, -0.39963161019832893, -0.14122383757822082, -1.0712700208006067, -1.714571845071005, 2.129538864622917, 0.16601263740442354, 1.5156337252811571, 0.5399203408697802, -0.9049631604091928, -0.5633959690452599, 1.1667093922565825, 7.347695481576315, 6.24400018907593, 5.7006414632762885, 3.0794117657566256, 0.619711863566995, 7.6917399916586024, 2.577634354912533, -0.5546579684717043, -1.782942834950387, -4.431057474763653, -7.216601341004677, -4.123206061492501, -2.529578198671863, 0.564221215950823, 0.3613974928266325, 0.7730361560581633, -0.11990657690075575, 0.46302868174807243, 0.5814346494680038, -1.3218169388690841, -2.0841166845806307, -1.2425519186264402, -1.6496981212698592, 1.1467882509807725, 5.33590642715359, 2.421450867181216, 1.3129592616254488, 7.259394871183906, 5.764560984134896, 4.727575928635321, -3.4790531170876737, 6.094763113423468, 0.38061656265021615, -1.8410854800448493, -5.264397325538375, -8.042032053094736, -3.7334205303233645, -4.186635208340888, -7.078030950104874, -2.8948812162150657, -1.754666161750013, 0.4323846149289578, -0.5114330489047978, 0.04319191284032761, -0.7205807747551177, 0.5542277717367217, -0.2850915511205765, -1.0119464373916796, -0.3924118545482734, -6.26824949862756, -6.3024741556399455, -4.800647904084585, 1.9371053151448447, -0.6608356638539375, 6.14714559501381, 0.4150974220004658, -3.0534260454761344, -0.23582465441645278, -0.8130777744724377, -4.619537670923775, -4.14284826819634, -2.3843776598643776, -4.097663692357419, -4.400733927111662, -3.2436984942144464, -4.913028361216285, -3.845533382386645, -2.1166513339185933, -1.1754616342059472, -0.17769134363828962, -0.2872821841412376, 0.5632250933137632, -0.5919502376046907, -0.8751380394263971, 0.7522958408554195, 0.14943345116332526, -3.50254772567236, -5.30562188356003, 0.7158295936378963, -2.178396175860131, -7.164584614780925, -6.742195144155107, -3.610701584036514, 5.788103920023762, 0.6830827799459636, 2.3944647651128395, -1.464797786988953, -4.754809298405133, -5.699397491686684, -8.240568460909826, 0.6212939306436414, -2.255124621143704, -1.5338646033740329, -6.318590219083045, -2.690781981463659, 0.351297045925646, -0.5829623417013544, 0.5498912950934954, 0.36682511071741203, 0.738295480181224, 0.9129405464156038, -0.5796360833452228, -1.1577480414334709, -2.406491043191766, -0.43090100870371784, 0.7966367714608771, 5.485447362522592, -3.178313172706996, -2.3451344827593887, -3.301135374756385, -1.0284812922889717, -4.559738571026762, -2.6731432381132723, -2.0703761701442125, -4.616355492049756, -5.129223526363249, -2.387091119787281, -0.6659519641616344, -3.9782322664154757, -1.748764703838571, 0.8516800977356013, 0.44817975781397323, 1.484807107868428, 0.06512912485575434, 0.6469072726225166, 1.4109806044651994, -0.2797085500113135, -0.4981054587806696, 0.3032877429382733, 0.1641845150201233, -0.08609700294258348, -0.35376879956883545, 0.17877765322484343, 1.0005632715430153, -4.667319582221108, -2.7161073965111164, -2.2588416451285243, -0.5456754301190941, -7.321657899963551, -5.868991857132333, 1.769629523722509, -5.1227539196480025, -0.28352754403749536, -0.38458931963017834, 1.7605848224815948, 0.5879340421156288, -1.4780684985027617, -1.1801255463491296, 0.28885512873694535, 0.3162767664209351, 1.204236097705275, 0.6364391246255099, 0.2490286239040452, 1.21071303113824, -0.7874045271416389, 0.09122749148205589, -0.17642773815020854, 0.8552019428202473, -0.8584192904040283, 1.078859141166411, 3.557119183764825, 1.5351155784673913, -3.275417047683031, -1.4870842953479166, -3.86023346934173, -0.9222931014454752, 0.3733647233885104, 2.9298980552755323, -0.7347531466690587, 0.633052674332234, -0.6678088248023669, -1.2133687795119408, -0.41021907044018663, -0.595956047924512, 1.1639747150514896, -0.4331466191726688, 0.3800390200017018, -1.6365397734087122, -0.22349194416294133, -1.693803364499737, -0.9771171047502789, 0.4761648396476451, 0.2266744044773661, 0.8361942105996754, 0.8100207748312445, -0.8026628375313678, -0.37565610928652654, -0.024478999279914926, 4.350204433898122, 0.8203288877805577, -0.7865221722169984, 0.8454213692168311, 0.5527516192071784, -0.18898731889459522, -0.7483710663928119, 4.617021656597695, 2.5440581629931676, 6.528156786290458, 3.767474384262852, -1.0433732457073046, -1.314620841123454, 1.0361828677724372, 0.9713335294888976, 2.7225246012329785, -0.876212396309544, -2.708560728201547, -1.6824114829698378, 0.8866379650921132, -1.0495008227818676, 0.818025528793086, -0.0020305839543713167, -0.5237830604319572, -0.2266284005934452, -0.4723564301105281, 0.49780735748149674, -0.1887982862205638, -1.936955429820125, -2.5322665883099074, 3.0427019051412865, 1.4384113466006425, 0.3058666157594541, 0.2799034457586629, 1.4177739147140422, 0.21383167120251853, 5.655673092472565, 2.6555861466834276, -1.0112986675961513, 3.266307707730138, 3.113403104359733, -1.2340506176559205, 5.668022109107921, 3.740693325731018, 2.0078715811373633, 1.492821938843184, 1.8256860712992244, 1.2599672294516355, 0.7429646355703668, 0.7629697080751513, 0.9400934926951325, -0.5292106786873294, -0.07441825093711874, -0.08210214570182019, 0.4484131417660603, 0.47992693447456275, -2.8650175543027725, -5.000245463524967, -2.47802081802007, -0.23131030817095535, 0.5170153237514317, 1.9414210852193088, -0.4167048094020955, -2.270614406227329, 3.715948830317918, 1.7946195959311662, 3.0833541453005524, 0.7508309943058582, -1.8157555242211734, 1.0251973733734905, 2.100407331431985, 4.498987241117664, 2.125921419302798, 0.8340628829668342, 0.40076464291541986, 1.252287867035035, -0.24914859967571273, -0.09091884371555503, 0.3072311194614823, 0.8202934234615491, -0.7027202650916582, -0.8736879498659482, -0.2319646775064987, 0.726746671165172, -1.9470045837589618, -0.5826226830030979, -0.7767487966630426, 0.4863595310983618, 1.310792318630856, 4.456520923851945, 1.0095557729926834, 0.7714886742844979, 2.8623781243895174, 1.5274348715319712, -0.8752141751790662, 3.7462442388271318, 0.9977641155942014, 0.16120364575092047, -3.13150592821245, 1.368007814483316, -0.7508364006193673, -0.026453967860294414, 0.5093057917612234, -1.123155442127821, -0.7036304899032301, -0.5990802703271036, 0.66596710184747, -0.024716620887492935, -0.4047290249968931, 0.7505749084798469, 0.2747768242804915, -0.09070779488059655, 1.1538293261404482, 2.9716849237881884, -1.0109239000624306, -0.8944951234826759, 0.2978763651404402, 0.49550003008990956, -1.7666586391256507, -2.067978953862871, -2.7687007708147853, 1.8369082689438145, 2.1040087911615544, -1.958774042244852, -3.486304315610238, -1.6554501000202428, -3.2675335274142636, 2.5898076200548155, 1.971522745421835, 0.208323471443111, 0.10679537042156435, -0.3858684765680761, -0.8416011145182667, -0.05291872350429071, 0.15786660334791458, -0.9817747567113984, 0.18412865223084074, -0.8709055409539048, -0.7624971341832145, -0.025055523689471833, 1.7974463287182942, 1.5031231864113033, 1.6764904967570615, 0.9141768157861565, 0.8438573989063539, -1.2655458756426066, -2.239026432072211, -0.7795276606435206, -3.730621190619869, -1.9929454347141604, -2.2250794698912473, 0.6532805681612697, 5.170751574648393, 4.738309444605344, 0.22873766634349138, 0.17362094678188514, 0.23469981700998518, -0.11464683260372228, 0.749623638256226, 0.9147687826671526, 0.6781425789050484, -0.16112358681585381, 0.9711660224805436, 0.44432663469137945, -0.3851692589513416, -0.424451846758404, 0.5412540610188616, -0.17896314592323206, -0.6938918631161345, 0.6578623080106697, 0.47667806727869905, -0.7868610075197409, 0.20370759941701194, 0.5318400286202817, 1.3285592618697906, 1.4055976971795245, 0.07913394225920264, 0.10847030751268805, -0.37577351134139514, 0.42819872947202725, 0.9262849977147678, 1.8343355447763636, -0.5005193722208021, -0.6736707972639979, -0.4967857577546007, 0.7445790331476894, -0.3136266483015995, 0.9705052788098845, -0.37803833048858726, -0.12647571233544208
